{"learner":{"attributes":{"scikit_learn":"{\"_estimator_type\": \"classifier\"}"},"feature_names":[],"feature_types":[],"gradient_booster":{"model":{"gbtree_model_param":{"num_parallel_tree":"1","num_trees":"200"},"iteration_indptr":[0,1,2,3,4,5,6,7,8,9,10,11,12,13,14,15,16,17,18,19,20,21,22,23,24,25,26,27,28,29,30,31,32,33,34,35,36,37,38,39,40,41,42,43,44,45,46,47,48,49,50,51,52,53,54,55,56,57,58,59,60,61,62,63,64,65,66,67,68,69,70,71,72,73,74,75,76,77,78,79,80,81,82,83,84,85,86,87,88,89,90,91,92,93,94,95,96,97,98,99,100,101,102,103,104,105,106,107,108,109,110,111,112,113,114,115,116,117,118,119,120,121,122,123,124,125,126,127,128,129,130,131,132,133,134,135,136,137,138,139,140,141,142,143,144,145,146,147,148,149,150,151,152,153,154,155,156,157,158,159,160,161,162,163,164,165,166,167,168,169,170,171,172,173,174,175,176,177,178,179,180,181,182,183,184,185,186,187,188,189,190,191,192,193,194,195,196,197,198,199,200],"tree_info":[0,0,0,0,0,0,0,0,0,0,0,0,0,0,0,0,0,0,0,0,0,0,0,0,0,0,0,0,0,0,0,0,0,0,0,0,0,0,0,0,0,0,0,0,0,0,0,0,0,0,0,0,0,0,0,0,0,0,0,0,0,0,0,0,0,0,0,0,0,0,0,0,0,0,0,0,0,0,0,0,0,0,0,0,0,0,0,0,0,0,0,0,0,0,0,0,0,0,0,0,0,0,0,0,0,0,0,0,0,0,0,0,0,0,0,0,0,0,0,0,0,0,0,0,0,0,0,0,0,0,0,0,0,0,0,0,0,0,0,0,0,0,0,0,0,0,0,0,0,0,0,0,0,0,0,0,0,0,0,0,0,0,0,0,0,0,0,0,0,0,0,0,0,0,0,0,0,0,0,0,0,0,0,0,0,0,0,0,0,0,0,0,0,0,0,0,0,0,0,0],"trees":[{"base_weights":[-0E0,1.9253744E-1,-4.4456267E-1,-5.4294413E-1,2.6286557E-1,-8.833652E-1,-3.7983003E-1,1.0493827E-2,-6.405046E-2,4.1338228E-2,1.1693626E-2,-9.505037E-2,-7.0081495E-2,-2.3981191E-2,-5.0851732E-2],"categories":[],"categories_nodes":[],"categories_segments":[],"categories_sizes":[],"default_left":[0,0,0,0,0,0,0,0,0,0,0,0,0,0,0],"id":0,"left_children":[1,3,5,7,9,11,13,-1,-1,-1,-1,-1,-1,-1,-1],"loss_changes":[1.7300454E3,7.2965985E2,1.7316833E2,7.789166E1,2.8271533E2,8.948853E0,9.582239E1,0E0,0E0,0E0,0E0,0E0,0E0,0E0,0E0],"parents":[2147483647,0,0,1,1,2,2,3,3,4,4,5,5,6,6],"right_children":[2,4,6,8,10,12,14,-1,-1,-1,-1,-1,-1,-1,-1],"split_conditions":[3.3483547E-3,3.1179497E1,3.2E1,2.4E1,3.203423E1,3.1E1,3.203423E1,1.0493827E-2,-6.405046E-2,4.1338228E-2,1.1693626E-2,-9.505037E-2,-7.0081495E-2,-2.3981191E-2,-5.0851732E-2],"split_indices":[1,14,14,14,14,14,14,0,0,0,0,0,0,0,0],"split_type":[0,0,0,0,0,0,0,0,0,0,0,0,0,0,0],"sum_hessian":[2.021E4,1.410275E4,6.10725E3,1.23025E3,1.28725E4,7.835E2,5.32375E3,1.61E2,1.06925E3,6.33575E3,6.53675E3,5.6975E2,2.1375E2,2.551E3,2.77275E3],"tree_param":{"num_deleted":"0","num_feature":"17","num_nodes":"15","size_leaf_vector":"1"}},{"base_weights":[-1.5094361E-5,1.7333429E-1,-4.0040168E-1,-4.8914942E-1,2.3664E-1,-7.9687047E-1,-3.420059E-1,9.113357E-3,-5.777086E-2,3.7221547E-2,1.0524817E-2,-8.576221E-2,-6.318598E-2,-2.1587225E-2,-4.5799065E-2],"categories":[],"categories_nodes":[],"categories_segments":[],"categories_sizes":[],"default_left":[0,0,0,0,0,0,0,0,0,0,0,0,0,0,0],"id":1,"left_children":[1,3,5,7,9,11,13,-1,-1,-1,-1,-1,-1,-1,-1],"loss_changes":[1.4023126E3,5.914441E2,1.4106049E2,6.3269287E1,2.2923083E2,7.306946E0,7.776837E1,0E0,0E0,0E0,0E0,0E0,0E0,0E0,0E0],"parents":[2147483647,0,0,1,1,2,2,3,3,4,4,5,5,6,6],"right_children":[2,4,6,8,10,12,14,-1,-1,-1,-1,-1,-1,-1,-1],"split_conditions":[3.3483547E-3,3.1179497E1,3.2E1,2.5E1,3.203423E1,3.1E1,3.203423E1,9.113357E-3,-5.777086E-2,3.7221547E-2,1.0524817E-2,-8.576221E-2,-6.318598E-2,-2.1587225E-2,-4.5799065E-2],"split_indices":[1,14,14,14,14,14,14,0,0,0,0,0,0,0,0],"split_type":[0,0,0,0,0,0,0,0,0,0,0,0,0,0,0],"sum_hessian":[2.0202266E4,1.4098721E4,6.1035444E3,1.2291497E3,1.286957E4,7.819528E2,5.321592E3,1.6274377E2,1.0664059E3,6.3330444E3,6.5365264E3,5.68465E2,2.1348776E2,2.5506333E3,2.7709583E3],"tree_param":{"num_deleted":"0","num_feature":"17","num_nodes":"15","size_leaf_vector":"1"}},{"base_weights":[-3.4593897E-5,1.5612045E-1,-3.6100972E-1,-4.413628E-1,2.131156E-1,-7.212759E-1,-3.0816367E-1,8.546087E-3,-5.2098025E-2,3.3539217E-2,9.4733825E-3,-7.7680156E-2,-5.7087936E-2,-4.5586832E-2,-2.1576378E-2],"categories":[],"categories_nodes":[],"categories_segments":[],"categories_sizes":[],"default_left":[0,0,0,0,0,0,0,0,0,0,0,0,0,0,0],"id":2,"left_children":[1,3,5,7,9,11,13,-1,-1,-1,-1,-1,-1,-1,-1],"loss_changes":[1.1377388E3,4.7988312E2,1.1581598E2,5.152214E1,1.8616321E2,6.061157E0,7.246698E1,0E0,0E0,0E0,0E0,0E0,0E0,0E0,0E0],"parents":[2147483647,0,0,1,1,2,2,3,3,4,4,5,5,6,6],"right_children":[2,4,6,8,10,12,14,-1,-1,-1,-1,-1,-1,-1,-1],"split_conditions":[3.3483547E-3,3.1179497E1,3.2E1,2.4E1,3.203423E1,3.1E1,9.463946E-1,8.546087E-3,-5.2098025E-2,3.3539217E-2,9.4733825E-3,-7.7680156E-2,-5.7087936E-2,-4.5586832E-2,-2.1576378E-2],"split_indices":[1,14,14,14,14,14,7,0,0,0,0,0,0,0,0],"split_type":[0,0,0,0,0,0,0,0,0,0,0,0,0,0,0],"sum_hessian":[2.0182094E4,1.4088211E4,6.0938833E3,1.2262825E3,1.2861928E4,7.7792224E2,5.3159614E3,1.6098453E2,1.0652979E3,6.3259844E3,6.5359434E3,5.651185E2,2.1280374E2,2.044238E3,3.2717231E3],"tree_param":{"num_deleted":"0","num_feature":"17","num_nodes":"15","size_leaf_vector":"1"}},{"base_weights":[-5.429479E-5,1.4066283E-1,-3.2569546E-1,-3.9867604E-1,1.9198315E-1,-6.544188E-1,-2.7776688E-1,7.424414E-3,-4.7130864E-2,3.0236581E-2,8.527334E-3,-9.960221E-2,-6.3114546E-2,-2.5034724E-2,-7.169725E-2],"categories":[],"categories_nodes":[],"categories_segments":[],"categories_sizes":[],"default_left":[0,0,0,0,0,0,0,0,0,0,0,0,0,0,0],"id":3,"left_children":[1,3,5,7,9,11,13,-1,-1,-1,-1,-1,-1,-1,-1],"loss_changes":[9.2361224E2,3.8963626E2,9.563818E1,4.2050552E1,1.5135672E2,5.518219E0,6.376346E1,0E0,0E0,0E0,0E0,0E0,0E0,0E0,0E0],"parents":[2147483647,0,0,1,1,2,2,3,3,4,4,5,5,6,6],"right_children":[2,4,6,8,10,12,14,-1,-1,-1,-1,-1,-1,-1,-1],"split_conditions":[3.3483547E-3,3.1179497E1,3.2E1,2.5E1,3.203423E1,3.492861E-1,3.862551E-1,7.424414E-3,-4.7130864E-2,3.0236581E-2,8.527334E-3,-9.960221E-2,-6.3114546E-2,-2.5034724E-2,-7.169725E-2],"split_indices":[1,14,14,14,14,5,10,0,0,0,0,0,0,0,0],"split_type":[0,0,0,0,0,0,0,0,0,0,0,0,0,0,0],"sum_hessian":[2.0153957E4,1.4073178E4,6.08078E3,1.2221813E3,1.2850996E4,7.7216284E2,5.3086167E3,1.627131E2,1.0594681E3,6.3158877E3,6.535109E3,4.658591E1,7.2557697E2,4.998152E3,3.1046506E2],"tree_param":{"num_deleted":"0","num_feature":"17","num_nodes":"15","size_leaf_vector":"1"}},{"base_weights":[-7.6010045E-5,1.2676388E-1,-2.9397637E-1,-3.6038163E-1,1.7297845E-1,-5.947043E-1,-2.5044447E-1,6.960579E-3,-4.2590227E-2,2.7268512E-2,7.6759616E-3,-6.468546E-2,-4.5463152E-2,-1.364394E-2,-3.5559528E-2],"categories":[],"categories_nodes":[],"categories_segments":[],"categories_sizes":[],"default_left":[0,0,0,0,0,0,0,0,0,0,0,0,0,0,0],"id":4,"left_children":[1,3,5,7,9,11,13,-1,-1,-1,-1,-1,-1,-1,-1],"loss_changes":[7.5012885E2,3.1651117E2,7.926611E1,3.4351715E1,1.2315088E2,5.304016E0,6.3497345E1,0E0,0E0,0E0,0E0,0E0,0E0,0E0,0E0],"parents":[2147483647,0,0,1,1,2,2,3,3,4,4,5,5,6,6],"right_children":[2,4,6,8,10,12,14,-1,-1,-1,-1,-1,-1,-1,-1],"split_conditions":[3.3483547E-3,3.1179497E1,3.2E1,2.4E1,3.203423E1,3.1E1,3.203423E1,6.960579E-3,-4.2590227E-2,2.7268512E-2,7.6759616E-3,-6.468546E-2,-4.5463152E-2,-1.364394E-2,-3.5559528E-2],"split_indices":[1,14,14,14,14,14,14,0,0,0,0,0,0,0,0],"split_type":[0,0,0,0,0,0,0,0,0,0,0,0,0,0,0],"sum_hessian":[2.0120404E4,1.4055136E4,6.065269E3,1.2172598E3,1.2837876E4,7.653566E2,5.2999126E3,1.6094907E2,1.0563108E3,6.3037686E3,6.5341074E3,5.5507837E2,2.1027826E2,2.543996E3,2.7559165E3],"tree_param":{"num_deleted":"0","num_feature":"17","num_nodes":"15","size_leaf_vector":"1"}},{"base_weights":[-9.2170056E-5,1.14254184E-1,-2.654552E-1,-3.259165E-1,1.5587316E-1,-3.9854616E-1,-1.8260694E-1,6.0492973E-3,-3.858282E-2,2.4597034E-2,6.909729E-3,-6.589529E-2,-3.6257416E-2,-1.3654104E-2,-6.315779E-2],"categories":[],"categories_nodes":[],"categories_segments":[],"categories_sizes":[],"default_left":[0,0,0,0,0,0,0,0,0,0,0,0,0,0,0],"id":5,"left_children":[1,3,5,7,9,11,13,-1,-1,-1,-1,-1,-1,-1,-1],"loss_changes":[6.094307E2,2.57187E2,6.661783E1,2.8100952E1,1.0024759E2,2.1490265E1,7.705073E1,0E0,0E0,0E0,0E0,0E0,0E0,0E0,0E0],"parents":[2147483647,0,0,1,1,2,2,3,3,4,4,5,5,6,6],"right_children":[2,4,6,8,10,12,14,-1,-1,-1,-1,-1,-1,-1,-1],"split_conditions":[3.3483547E-3,3.1179497E1,7.944202E-1,2.5E1,3.203423E1,3.1E1,3.862551E-1,6.0492973E-3,-3.858282E-2,2.4597034E-2,6.909729E-3,-6.589529E-2,-3.6257416E-2,-1.3654104E-2,-6.315779E-2],"split_indices":[1,14,12,14,14,14,1,0,0,0,0,0,0,0,0],"split_type":[0,0,0,0,0,0,0,0,0,0,0,0,0,0,0],"sum_hessian":[2.008253E4,1.4035239E4,6.047291E3,1.2118318E3,1.2823407E4,2.3186694E3,3.7286213E3,1.6266838E2,1.0491633E3,6.290405E3,6.5330024E3,2.7931906E2,2.0393505E3,3.3828354E3,3.4578592E2],"tree_param":{"num_deleted":"0","num_feature":"17","num_nodes":"15","size_leaf_vector":"1"}},{"base_weights":[-1.0648318E-4,1.0298647E-1,-2.396905E-1,-2.948242E-1,1.4046796E-1,-5.2974653E-1,-2.0406787E-1,5.6693354E-3,-3.4893997E-2,-4.0557276E-2,1.5460289E-2,-5.0011337E-2,-1.2615031E-1,-1.764326E-2,-5.3009685E-2],"categories":[],"categories_nodes":[],"categories_segments":[],"categories_sizes":[],"default_left":[0,0,0,0,0,0,0,0,0,0,0,0,0,0,0],"id":6,"left_children":[1,3,5,7,9,11,13,-1,-1,-1,-1,-1,-1,-1,-1],"loss_changes":[4.95129E2,2.0901808E2,6.2205597E1,2.2982712E1,9.8927505E1,1.36595E1,4.8314774E1,0E0,0E0,0E0,0E0,0E0,0E0,0E0,0E0],"parents":[2147483647,0,0,1,1,2,2,3,3,4,4,5,5,6,6],"right_children":[2,4,6,8,10,12,14,-1,-1,-1,-1,-1,-1,-1,-1],"split_conditions":[3.3483547E-3,3.1179497E1,9.463946E-1,2.4E1,5.6525695E-1,3.1546488E-1,3.6554974E-1,5.6693354E-3,-3.4893997E-2,-4.0557276E-2,1.5460289E-2,-5.0011337E-2,-1.2615031E-1,-1.764326E-2,-5.3009685E-2],"split_indices":[1,14,6,14,6,6,5,0,0,0,0,0,0,0,0],"split_type":[0,0,0,0,0,0,0,0,0,0,0,0,0,0,0],"sum_hessian":[2.0044178E4,1.4014368E4,6.0298096E3,1.2061372E3,1.280823E4,6.580215E2,5.371788E3,1.6090501E2,1.0452322E3,3.224917E2,1.2485739E4,6.340293E2,2.3992176E1,4.953458E3,4.1833008E2],"tree_param":{"num_deleted":"0","num_feature":"17","num_nodes":"15","size_leaf_vector":"1"}},{"base_weights":[-1.2531067E-4,9.280089E-2,-2.1642517E-1,-2.6672563E-1,1.2654391E-1,-4.802282E-1,-1.7889848E-1,4.9293763E-3,-3.1624738E-2,2.0855436E-2,4.779422E-3,-7.865495E-2,-4.5975275E-2,-7.529711E-3,-2.7485922E-2],"categories":[],"categories_nodes":[],"categories_segments":[],"categories_sizes":[],"default_left":[0,0,0,0,0,0,0,0,0,0,0,0,0,0,0],"id":7,"left_children":[1,3,5,7,9,11,13,-1,-1,-1,-1,-1,-1,-1,-1],"loss_changes":[4.0223093E2,1.6984872E2,5.9447815E1,1.8816582E1,8.2640045E1,4.3320007E0,5.2335922E1,0E0,0E0,0E0,0E0,0E0,0E0,0E0,0E0],"parents":[2147483647,0,0,1,1,2,2,3,3,4,4,5,5,6,6],"right_children":[2,4,6,8,10,12,14,-1,-1,-1,-1,-1,-1,-1,-1],"split_conditions":[3.3483547E-3,3.1179497E1,3.2E1,2.5E1,3.203423E1,3.492861E-1,3.203423E1,4.9293763E-3,-3.1624738E-2,2.0855436E-2,4.779422E-3,-7.865495E-2,-4.5975275E-2,-7.529711E-3,-2.7485922E-2],"split_indices":[1,14,14,14,14,5,14,0,0,0,0,0,0,0,0],"split_type":[0,0,0,0,0,0,0,0,0,0,0,0,0,0,0],"sum_hessian":[2.0009562E4,1.3996845E4,6.0127188E3,1.2003544E3,1.279649E4,7.4733655E2,5.2653823E3,1.6261884E2,1.0377356E3,6.26766E3,6.52883E3,4.448019E1,7.028563E2,2.5327515E3,2.7326309E3],"tree_param":{"num_deleted":"0","num_feature":"17","num_nodes":"15","size_leaf_vector":"1"}},{"base_weights":[-1.3454574E-4,8.365079E-2,-1.95483E-1,-2.4130188E-1,1.14039585E-1,-3.143298E-1,-1.2186696E-1,4.6174624E-3,-2.8603641E-2,-3.79445E-2,1.2686096E-2,-5.306639E-2,-2.8518671E-2,-8.315227E-3,-5.0469488E-2],"categories":[],"categories_nodes":[],"categories_segments":[],"categories_sizes":[],"default_left":[0,0,0,0,0,0,0,0,0,0,0,0,0,0,0],"id":8,"left_children":[1,3,5,7,9,11,13,-1,-1,-1,-1,-1,-1,-1,-1],"loss_changes":[3.2687976E2,1.380473E2,5.24093E1,1.5388985E1,8.092291E1,1.43007965E1,5.4846004E1,0E0,0E0,0E0,0E0,0E0,0E0,0E0,0E0],"parents":[2147483647,0,0,1,1,2,2,3,3,4,4,5,5,6,6],"right_children":[2,4,6,8,10,12,14,-1,-1,-1,-1,-1,-1,-1,-1],"split_conditions":[3.3483547E-3,3.1179497E1,7.944202E-1,2.4E1,5.6525695E-1,3.1E1,3.862551E-1,4.6174624E-3,-2.8603641E-2,-3.79445E-2,1.2686096E-2,-5.306639E-2,-2.8518671E-2,-8.315227E-3,-5.0469488E-2],"split_indices":[1,14,12,14,6,14,1,0,0,0,0,0,0,0,0],"split_type":[0,0,0,0,0,0,0,0,0,0,0,0,0,0,0],"sum_hessian":[1.9969473E4,1.3975797E4,5.993675E3,1.1946166E3,1.2781181E4,2.2912988E3,3.702376E3,1.6085909E2,1.0337574E3,3.229384E2,1.2458242E4,2.6998056E2,2.0213182E3,3.3634534E3,3.3892267E2],"tree_param":{"num_deleted":"0","num_feature":"17","num_nodes":"15","size_leaf_vector":"1"}},{"base_weights":[-1.4536359E-4,7.537648E-2,-1.7653364E-1,-2.1827951E-1,1.0273506E-1,-4.2938316E-1,-1.4583077E-1,4.0170937E-3,-2.5921235E-2,1.7736277E-2,3.1286755E-3,-4.0170178E-2,-1.1250063E-1,-3.878446E-2,-1.1837395E-2],"categories":[],"categories_nodes":[],"categories_segments":[],"categories_sizes":[],"default_left":[0,0,0,0,0,0,0,0,0,0,0,0,0,0,0],"id":9,"left_children":[1,3,5,7,9,11,13,-1,-1,-1,-1,-1,-1,-1,-1],"loss_changes":[2.6557465E2,1.121728E2,4.6336792E1,1.2599754E1,6.8086685E1,1.1999931E1,3.5379402E1,0E0,0E0,0E0,0E0,0E0,0E0,0E0,0E0],"parents":[2147483647,0,0,1,1,2,2,3,3,4,4,5,5,6,6],"right_children":[2,4,6,8,10,12,14,-1,-1,-1,-1,-1,-1,-1,-1],"split_conditions":[3.3483547E-3,3.1179497E1,9.463946E-1,2.5E1,3.203423E1,3.1546488E-1,3.2E1,4.0170937E-3,-2.5921235E-2,1.7736277E-2,3.1286755E-3,-4.0170178E-2,-1.1250063E-1,-3.878446E-2,-1.1837395E-2],"split_indices":[1,14,6,14,14,6,14,0,0,0,0,0,0,0,0],"split_type":[0,0,0,0,0,0,0,0,0,0,0,0,0,0,0],"sum_hessian":[1.9934287E4,1.3958453E4,5.9758345E3,1.189019E3,1.2769434E4,6.456537E2,5.3301807E3,1.6256978E2,1.0264492E3,6.2450264E3,6.5244077E3,6.224611E2,2.3192543E1,5.417637E2,4.788417E3],"tree_param":{"num_deleted":"0","num_feature":"17","num_nodes":"15","size_leaf_vector":"1"}},{"base_weights":[-1.5213843E-4,6.793968E-2,-1.5942128E-1,-3.206504E-1,8.619024E-2,-2.6586714E-1,-9.42397E-2,-3.9966162E-2,1.092694E-1,-1.0142773E-2,1.1949082E-2,-8.775297E-3,-3.2153424E-2,-6.0504074E-3,-4.489536E-2],"categories":[],"categories_nodes":[],"categories_segments":[],"categories_sizes":[],"default_left":[0,0,0,0,0,0,0,0,0,0,0,0,0,0,0],"id":10,"left_children":[1,3,5,7,9,11,13,-1,-1,-1,-1,-1,-1,-1,-1],"loss_changes":[2.158031E2,9.8886345E1,4.1323822E1,7.028934E1,8.32012E1,2.2407516E1,4.4221596E1,0E0,0E0,0E0,0E0,0E0,0E0,0E0,0E0],"parents":[2147483647,0,0,1,1,2,2,3,3,4,4,5,5,6,6],"right_children":[2,4,6,8,10,12,14,-1,-1,-1,-1,-1,-1,-1,-1],"split_conditions":[3.3483547E-3,5.6525695E-1,9.463946E-1,1E0,2.8E1,2.3E1,3.862551E-1,-3.9966162E-2,1.092694E-1,-1.0142773E-2,1.1949082E-2,-8.775297E-3,-3.2153424E-2,-6.0504074E-3,-4.489536E-2],"split_indices":[1,6,7,0,15,15,1,0,0,0,0,0,0,0,0],"split_type":[0,0,0,0,0,0,0,0,0,0,0,0,0,0,0],"sum_hessian":[1.9896996E4,1.3938492E4,5.958504E3,6.24527E2,1.3313965E4,2.2617832E3,3.696721E3,5.921413E2,3.2385677E1,2.0065975E3,1.1307367E4,5.3918066E2,1.7226024E3,3.3767412E3,3.1997974E2],"tree_param":{"num_deleted":"0","num_feature":"17","num_nodes":"15","size_leaf_vector":"1"}},{"base_weights":[-1.4744882E-4,6.1209645E-2,-1.4390908E-1,-2.8946185E-1,7.763889E-2,-4.074547E-1,-1.18488975E-1,-3.609547E-2,9.9223495E-2,-9.127669E-3,1.076533E-2,-2.6226668E-2,-5.1984306E-2,-3.6347068E-3,-2.0110086E-2],"categories":[],"categories_nodes":[],"categories_segments":[],"categories_sizes":[],"default_left":[0,0,0,0,0,0,0,0,0,0,0,0,0,0,0],"id":11,"left_children":[1,3,5,7,9,11,13,-1,-1,-1,-1,-1,-1,-1,-1],"loss_changes":[1.7527473E2,8.0258095E1,3.977198E1,5.748979E1,6.746104E1,8.38903E0,3.6788696E1,0E0,0E0,0E0,0E0,0E0,0E0,0E0,0E0],"parents":[2147483647,0,0,1,1,2,2,3,3,4,4,5,5,6,6],"right_children":[2,4,6,8,10,12,14,-1,-1,-1,-1,-1,-1,-1,-1],"split_conditions":[3.3483547E-3,5.6525695E-1,3.1E1,1E0,2.8E1,2.2E1,3.203423E1,-3.609547E-2,9.9223495E-2,-9.127669E-3,1.076533E-2,-2.6226668E-2,-5.1984306E-2,-3.6347068E-3,-2.0110086E-2],"split_indices":[1,6,14,0,15,15,14,0,0,0,0,0,0,0,0],"split_type":[0,0,0,0,0,0,0,0,0,0,0,0,0,0,0],"sum_hessian":[1.9868625E4,1.3925733E4,5.9428926E3,6.22489E2,1.3303244E4,5.2146985E2,5.421423E3,5.902816E2,3.220744E1,2.0068759E3,1.1296368E4,2.2898753E2,2.9248233E2,2.719166E3,2.7022568E3],"tree_param":{"num_deleted":"0","num_feature":"17","num_nodes":"15","size_leaf_vector":"1"}},{"base_weights":[-1.4452843E-4,5.5146568E-2,-1.299286E-1,-1.7594792E-1,7.654838E-2,-3.5459775E-1,-1.0292323E-1,6.2418957E-3,-2.1412352E-2,1.4491655E-2,1.1315782E-3,-3.6689926E-2,1.0512222E-1,-8.205566E-3,-3.548211E-2],"categories":[],"categories_nodes":[],"categories_segments":[],"categories_sizes":[],"default_left":[0,0,0,0,0,0,0,0,0,0,0,0,0,0,0],"id":12,"left_children":[1,3,5,7,9,11,13,-1,-1,-1,-1,-1,-1,-1,-1],"loss_changes":[1.4238148E2,6.8829636E1,3.592829E1,1.0748051E1,5.6795586E1,1.1378372E1,2.7793644E1,0E0,0E0,0E0,0E0,0E0,0E0,0E0,0E0],"parents":[2147483647,0,0,1,1,2,2,3,3,4,4,5,5,6,6],"right_children":[2,4,6,8,10,12,14,-1,-1,-1,-1,-1,-1,-1,-1],"split_conditions":[3.3483547E-3,3.1179497E1,9.463946E-1,2.5E1,3.203423E1,9.538655E-1,3.6554974E-1,6.2418957E-3,-2.1412352E-2,1.4491655E-2,1.1315782E-3,-3.6689926E-2,1.0512222E-1,-8.205566E-3,-3.548211E-2],"split_indices":[1,14,6,14,14,0,5,0,0,0,0,0,0,0,0],"split_type":[0,0,0,0,0,0,0,0,0,0,0,0,0,0,0],"sum_hessian":[1.9839611E4,1.3912943E4,5.9266685E3,1.1786617E3,1.2734281E4,6.346465E2,5.292022E3,1.6262196E2,1.01603973E3,6.21711E3,6.5171714E3,6.2987384E2,4.7726374E0,4.888387E3,4.03635E2],"tree_param":{"num_deleted":"0","num_feature":"17","num_nodes":"15","size_leaf_vector":"1"}},{"base_weights":[-1.3634577E-4,4.969817E-2,-1.1724618E-1,-6.613791E-3,1.3147774E-1,-2.1350396E-1,-5.81761E-2,8.746922E-4,-4.963066E-2,-1.3734618E-2,1.8616369E-2,-8.831351E-3,-2.551364E-2,-2.8678211E-3,-3.5812378E-2],"categories":[],"categories_nodes":[],"categories_segments":[],"categories_sizes":[],"default_left":[0,0,0,0,0,0,0,0,0,0,0,0,0,0,0],"id":13,"left_children":[1,3,5,7,9,11,13,-1,-1,-1,-1,-1,-1,-1,-1],"loss_changes":[1.15610306E2,6.399499E1,3.361046E1,6.1913906E1,8.333139E1,1.169619E1,3.2424976E1,0E0,0E0,0E0,0E0,0E0,0E0,0E0,0E0],"parents":[2147483647,0,0,1,1,2,2,3,3,4,4,5,5,6,6],"right_children":[2,4,6,8,10,12,14,-1,-1,-1,-1,-1,-1,-1,-1],"split_conditions":[3.3483547E-3,1E0,7.944202E-1,5.8E1,2.8E1,2.3E1,3.862551E-1,8.746922E-4,-4.963066E-2,-1.3734618E-2,1.8616369E-2,-8.831351E-3,-2.551364E-2,-2.8678211E-3,-3.5812378E-2],"split_indices":[1,12,12,15,15,15,1,0,0,0,0,0,0,0,0],"split_type":[0,0,0,0,0,0,0,0,0,0,0,0,0,0,0],"sum_hessian":[1.9807475E4,1.3895153E4,5.9123203E3,8.229432E3,5.6657217E3,2.2474192E3,3.664901E3,7.980094E3,2.4933792E2,9.57475E2,4.7082466E3,5.6164655E2,1.6857727E3,3.3377507E3,3.271503E2],"tree_param":{"num_deleted":"0","num_feature":"17","num_nodes":"15","size_leaf_vector":"1"}},{"base_weights":[-1.3278711E-4,-2.7946582E-1,1.8739548E-2,-3.1686386E-1,9.3409914E-1,-9.413629E-2,6.516771E-2,-1.1242246E-2,-3.7989017E-2,1.0950041E-1,7.543735E-2,4.9719494E-3,-1.883251E-2,1.9134097E-2,-3.1136377E-3],"categories":[],"categories_nodes":[],"categories_segments":[],"categories_sizes":[],"default_left":[0,0,0,0,0,0,0,0,0,0,0,0,0,0,0],"id":14,"left_children":[1,3,5,7,9,11,13,-1,-1,-1,-1,-1,-1,-1,-1],"loss_changes":[1.04310875E2,5.712938E1,9.714011E1,1.5620041E1,2.6390076E-1,7.3207985E1,1.5959186E2,0E0,0E0,0E0,0E0,0E0,0E0,0E0,0E0],"parents":[2147483647,0,0,1,1,2,2,3,3,4,4,5,5,6,6],"right_children":[2,4,6,8,10,12,14,-1,-1,-1,-1,-1,-1,-1,-1],"split_conditions":[9.463946E-1,1E0,3.1E1,2.50053E1,3.203423E1,2.2E1,3.203423E1,-1.1242246E-2,-3.7989017E-2,1.0950041E-1,7.543735E-2,4.9719494E-3,-1.883251E-2,1.9134097E-2,-3.1136377E-3],"split_indices":[6,0,15,15,14,15,14,0,0,0,0,0,0,0,0],"split_type":[0,0,0,0,0,0,0,0,0,0,0,0,0,0,0],"sum_hessian":[1.9785084E4,1.2512522E3,1.853383E4,1.2145624E3,3.6689873E1,5.4012705E3,1.3132561E4,2.8685638E2,9.2770593E2,1.6671532E1,2.0018341E1,2.137346E3,3.2639243E3,5.6842827E3,7.4482773E3],"tree_param":{"num_deleted":"0","num_feature":"17","num_nodes":"15","size_leaf_vector":"1"}},{"base_weights":[-1.14663686E-4,4.3750662E-2,-1.0338063E-1,-6.357323E-3,1.1660695E-1,-3.0001682E-1,-7.649214E-2,7.585202E-4,-4.505366E-2,-1.1980138E-2,1.6481007E-2,-3.4661483E-2,-1.6975531E-2,4.4065007E-4,-1.52250575E-2],"categories":[],"categories_nodes":[],"categories_segments":[],"categories_sizes":[],"default_left":[0,0,0,0,0,0,0,0,0,0,0,0,0,0,0],"id":15,"left_children":[1,3,5,7,9,11,13,-1,-1,-1,-1,-1,-1,-1,-1],"loss_changes":[8.9551414E1,5.0655476E1,3.1140102E1,5.09229E1,6.445386E1,4.2427177E0,3.1786438E1,0E0,0E0,0E0,0E0,0E0,0E0,0E0,0E0],"parents":[2147483647,0,0,1,1,2,2,3,3,4,4,5,5,6,6],"right_children":[2,4,6,8,10,12,14,-1,-1,-1,-1,-1,-1,-1,-1],"split_conditions":[3.3483547E-3,1E0,3.2E1,5.8E1,2.8E1,2.8E1,3.203423E1,7.585202E-4,-4.505366E-2,-1.1980138E-2,1.6481007E-2,-3.4661483E-2,-1.6975531E-2,4.4065007E-4,-1.52250575E-2],"split_indices":[1,12,14,15,15,15,14,0,0,0,0,0,0,0,0],"split_type":[0,0,0,0,0,0,0,0,0,0,0,0,0,0,0],"sum_hessian":[1.9767418E4,1.3874418E4,5.893E3,8.221128E3,5.6532896E3,7.076657E2,5.1853345E3,7.971879E3,2.4924963E2,9.572157E2,4.6960737E3,5.199904E2,1.8767525E2,2.5080525E3,2.677282E3],"tree_param":{"num_deleted":"0","num_feature":"17","num_nodes":"15","size_leaf_vector":"1"}},{"base_weights":[-1.1352873E-4,-2.4611816E-1,1.6397431E-2,-2.800082E-1,8.5639024E-1,-1.1283391E-1,4.667943E-2,-9.1430675E-3,-3.3833276E-2,1.0089972E-1,6.8824805E-2,2.8357164E-3,-4.777577E-2,1.2915467E-2,-3.4501732E-3],"categories":[],"categories_nodes":[],"categories_segments":[],"categories_sizes":[],"default_left":[0,0,0,0,0,0,0,0,0,0,0,0,0,0,0],"id":16,"left_children":[1,3,5,7,9,11,13,-1,-1,-1,-1,-1,-1,-1,-1],"loss_changes":[8.0206436E1,4.664476E1,7.242122E1,1.3230026E1,2.622757E-1,1.8102875E2,1.0038556E2,0E0,0E0,0E0,0E0,0E0,0E0,0E0,0E0],"parents":[2147483647,0,0,1,1,2,2,3,3,4,4,5,5,6,6],"right_children":[2,4,6,8,10,12,14,-1,-1,-1,-1,-1,-1,-1,-1],"split_conditions":[9.463946E-1,1E0,2.8E1,2.50053E1,3.203423E1,2.4E1,3.203423E1,-9.1430675E-3,-3.3833276E-2,1.0089972E-1,6.8824805E-2,2.8357164E-3,-4.777577E-2,1.2915467E-2,-3.4501732E-3],"split_indices":[6,0,15,15,14,15,14,0,0,0,0,0,0,0,0],"split_type":[0,0,0,0,0,0,0,0,0,0,0,0,0,0,0],"sum_hessian":[1.9744662E4,1.240969E3,1.8503693E4,1.2046842E3,3.628478E1,3.512222E3,1.4991471E4,2.851836E2,9.195006E2,1.6399563E1,1.9885214E1,2.533081E3,9.7914105E2,7.436172E3,7.5552993E3],"tree_param":{"num_deleted":"0","num_feature":"17","num_nodes":"15","size_leaf_vector":"1"}},{"base_weights":[-1.07351625E-4,3.8564388E-2,-9.1306254E-2,4.8184343E-2,-2.8708717E-1,-1.7295189E-1,-4.151533E-2,-4.3323017E-3,8.3261905E-3,-4.028832E-2,-1.0022958E-2,-6.295085E-3,-2.0972004E-2,-1.5951497E-3,-3.2219958E-2],"categories":[],"categories_nodes":[],"categories_segments":[],"categories_sizes":[],"default_left":[0,0,0,0,0,0,0,0,0,0,0,0,0,0,0],"id":17,"left_children":[1,3,5,7,9,11,13,-1,-1,-1,-1,-1,-1,-1,-1],"loss_changes":[6.9569534E1,4.3408916E1,2.3871017E1,4.3193695E1,8.562664E0,8.985077E0,2.6184883E1,0E0,0E0,0E0,0E0,0E0,0E0,0E0,0E0],"parents":[2147483647,0,0,1,1,2,2,3,3,4,4,5,5,6,6],"right_children":[2,4,6,8,10,12,14,-1,-1,-1,-1,-1,-1,-1,-1],"split_conditions":[3.3483547E-3,5.831215E1,7.944202E-1,3.1E1,1.5987849E-1,2.3E1,3.6554974E-1,-4.3323017E-3,8.3261905E-3,-4.028832E-2,-1.0022958E-2,-6.295085E-3,-2.0972004E-2,-1.5951497E-3,-3.2219958E-2],"split_indices":[1,15,12,15,12,15,5,0,0,0,0,0,0,0,0],"split_type":[0,0,0,0,0,0,0,0,0,0,0,0,0,0,0],"sum_hessian":[1.9723854E4,1.38510625E4,5.8727905E3,1.3454462E4,3.9660123E2,2.223799E3,3.6489915E3,3.7282603E3,9.726201E3,2.4414685E2,1.5245438E2,5.5777856E2,1.6660205E3,3.3453633E3,3.036283E2],"tree_param":{"num_deleted":"0","num_feature":"17","num_nodes":"15","size_leaf_vector":"1"}},{"base_weights":[-1.06802465E-4,-2.1613939E-1,1.4300603E-2,-2.4675399E-1,7.856099E-1,-7.200502E-2,4.9795963E-2,3.3639558E-2,-2.6307097E-2,9.330192E-2,6.261312E-2,5.517449E-3,-1.5557951E-2,1.5313263E-2,-2.8840469E-3],"categories":[],"categories_nodes":[],"categories_segments":[],"categories_sizes":[],"default_left":[0,0,0,0,0,0,0,0,0,0,0,0,0,0,0],"id":18,"left_children":[1,3,5,7,9,11,13,-1,-1,-1,-1,-1,-1,-1,-1],"loss_changes":[6.1333633E1,3.797796E1,5.6596992E1,1.1471161E1,2.8033066E-1,5.723544E1,1.06379875E2,0E0,0E0,0E0,0E0,0E0,0E0,0E0,0E0],"parents":[2147483647,0,0,1,1,2,2,3,3,4,4,5,5,6,6],"right_children":[2,4,6,8,10,12,14,-1,-1,-1,-1,-1,-1,-1,-1],"split_conditions":[9.463946E-1,1E0,3.1E1,1.7E1,3.203423E1,2.2E1,3.203423E1,3.3639558E-2,-2.6307097E-2,9.330192E-2,6.261312E-2,5.517449E-3,-1.5557951E-2,1.5313263E-2,-2.8840469E-3],"split_indices":[6,0,15,14,14,15,14,0,0,0,0,0,0,0,0],"split_type":[0,0,0,0,0,0,0,0,0,0,0,0,0,0,0],"sum_hessian":[1.9703787E4,1.2310308E3,1.8472756E4,1.1952561E3,3.5774708E1,5.383049E3,1.3089708E4,3.199996E1,1.1632561E3,1.6070238E1,1.970447E1,2.1347825E3,3.248266E3,5.656074E3,7.4336333E3],"tree_param":{"num_deleted":"0","num_feature":"17","num_nodes":"15","size_leaf_vector":"1"}},{"base_weights":[-8.899836E-5,-1.6339104E-1,1.6885739E-2,-2.1218781E-1,-6.1036702E-2,6.761297E-2,-3.1058589E-2,-1.2620005E-2,-3.0421246E-2,-1.7487487E-2,6.4377612E-3,-5.017753E-3,1.2828173E-2,4.247798E-4,-1.1994028E-2],"categories":[],"categories_nodes":[],"categories_segments":[],"categories_sizes":[],"default_left":[0,0,0,0,0,0,0,0,0,0,0,0,0,0,0],"id":19,"left_children":[1,3,5,7,9,11,13,-1,-1,-1,-1,-1,-1,-1,-1],"loss_changes":[5.4576946E1,9.246292E0,4.3377647E1,9.892178E0,8.575919E0,6.1936695E1,2.8775406E1,0E0,0E0,0E0,0E0,0E0,0E0,0E0,0E0],"parents":[2147483647,0,0,1,1,2,2,3,3,4,4,5,5,6,6],"right_children":[2,4,6,8,10,12,14,-1,-1,-1,-1,-1,-1,-1,-1],"split_conditions":[3.2E1,2.8E1,3.203423E1,2.774735E1,9.463946E-1,3.1E1,3.3483547E-3,-1.2620005E-2,-3.0421246E-2,-1.7487487E-2,6.4377612E-3,-5.017753E-3,1.2828173E-2,4.247798E-4,-1.1994028E-2],"split_indices":[14,15,14,14,7,15,9,0,0,0,0,0,0,0,0],"split_type":[0,0,0,0,0,0,0,0,0,0,0,0,0,0,0],"sum_hessian":[1.9686594E4,1.852864E3,1.783373E4,1.2539691E3,5.988949E2,8.665177E3,9.168554E3,6.4947314E2,6.044959E2,3.1372937E2,2.851655E2,2.94586E3,5.719317E3,6.562636E3,2.6059172E3],"tree_param":{"num_deleted":"0","num_feature":"17","num_nodes":"15","size_leaf_vector":"1"}},{"base_weights":[-8.7985E-5,3.2007545E-2,-7.592592E-2,4.7058877E-2,-1.6192554E-1,-2.6715752E-1,-5.822776E-2,-1.9753674E-2,5.7346984E-3,-9.118946E-3,-2.6843531E-2,-1.6613564E-2,-3.483143E-2,-1.3538542E-2,-1.1317137E-3],"categories":[],"categories_nodes":[],"categories_segments":[],"categories_sizes":[],"default_left":[0,0,0,0,0,0,0,0,0,0,0,0,0,0,0],"id":20,"left_children":[1,3,5,7,9,11,13,-1,-1,-1,-1,-1,-1,-1,-1],"loss_changes":[4.7869553E1,4.0342957E1,1.9777119E1,3.228193E1,7.4753017E0,4.0013313E0,1.9377409E1,0E0,0E0,0E0,0E0,0E0,0E0,0E0,0E0],"parents":[2147483647,0,0,1,1,2,2,3,3,4,4,5,5,6,6],"right_children":[2,4,6,8,10,12,14,-1,-1,-1,-1,-1,-1,-1,-1],"split_conditions":[3.3483547E-3,3.3E1,3.1E1,5.6525695E-1,5.831215E1,2.2E1,9.463946E-1,-1.9753674E-2,5.7346984E-3,-9.118946E-3,-2.6843531E-2,-1.6613564E-2,-3.483143E-2,-1.3538542E-2,-1.1317137E-3],"split_indices":[1,15,14,6,15,15,7,0,0,0,0,0,0,0,0],"split_type":[0,0,0,0,0,0,0,0,0,0,0,0,0,0,0],"sum_hessian":[1.9664559E4,1.3817433E4,5.847127E3,1.2822985E4,9.9444696E2,4.9410815E2,5.3530186E3,5.168513E2,1.2306135E4,5.98694E2,3.95753E2,2.214723E2,2.7263583E2,2.0232808E3,3.3297378E3],"tree_param":{"num_deleted":"0","num_feature":"17","num_nodes":"15","size_leaf_vector":"1"}},{"base_weights":[-9.0364316E-5,-1.7447555E-1,1.1435062E-2,-2.0231435E-1,7.3580694E-1,-8.376683E-2,3.3681817E-2,-2.7072846E-3,-2.568613E-2,8.744373E-2,5.87039E-2,3.6767614E-3,-3.9940324E-2,9.879033E-3,-3.0216652E-3],"categories":[],"categories_nodes":[],"categories_segments":[],"categories_sizes":[],"default_left":[0,0,0,0,0,0,0,0,0,0,0,0,0,0,0],"id":21,"left_children":[1,3,5,7,9,11,13,-1,-1,-1,-1,-1,-1,-1,-1],"loss_changes":[3.9489876E1,3.1016178E1,3.903628E1,1.1298416E1,2.3659134E-1,1.3283893E2,6.2157307E1,0E0,0E0,0E0,0E0,0E0,0E0,0E0,0E0],"parents":[2147483647,0,0,1,1,2,2,3,3,4,4,5,5,6,6],"right_children":[2,4,6,8,10,12,14,-1,-1,-1,-1,-1,-1,-1,-1],"split_conditions":[9.463946E-1,1E0,2.8E1,2.50053E1,3.203423E1,2.4E1,3.203423E1,-2.7072846E-3,-2.568613E-2,8.744373E-2,5.87039E-2,3.6767614E-3,-3.9940324E-2,9.879033E-3,-3.0216652E-3],"split_indices":[6,0,15,15,14,15,14,0,0,0,0,0,0,0,0],"split_type":[0,0,0,0,0,0,0,0,0,0,0,0,0,0,0],"sum_hessian":[1.9646047E4,1.2170693E3,1.8428977E4,1.1817074E3,3.5361942E1,3.4902354E3,1.4938741E4,2.808676E2,9.008398E2,1.5779681E1,1.9582262E1,2.5263591E3,9.638763E2,7.39904E3,7.5397017E3],"tree_param":{"num_deleted":"0","num_feature":"17","num_nodes":"15","size_leaf_vector":"1"}},{"base_weights":[-8.4501415E-5,2.8273067E-2,-6.718118E-2,-1.3969445E-2,8.972309E-2,-5.2661687E-2,-2.6150963E-1,1.6982013E-2,-3.4284778E-3,-7.953224E-3,1.2429854E-2,-1.27206845E-2,-5.8989757E-4,-1.036991E-1,-2.4888964E-2],"categories":[],"categories_nodes":[],"categories_segments":[],"categories_sizes":[],"default_left":[0,0,0,0,0,0,0,0,0,0,0,0,0,0,0],"id":22,"left_children":[1,3,5,7,9,11,13,-1,-1,-1,-1,-1,-1,-1,-1],"loss_changes":[3.7347996E1,3.581707E1,1.6439747E1,3.0538752E1,3.290459E1,1.891817E1,3.7069836E0,0E0,0E0,0E0,0E0,0E0,0E0,0E0,0E0],"parents":[2147483647,0,0,1,1,2,2,3,3,4,4,5,5,6,6],"right_children":[2,4,6,8,10,12,14,-1,-1,-1,-1,-1,-1,-1,-1],"split_conditions":[3.3483547E-3,1E0,3.9807236E-1,2.5E1,2.8E1,9.463946E-1,5.9710854E-1,1.6982013E-2,-3.4284778E-3,-7.953224E-3,1.2429854E-2,-1.27206845E-2,-5.8989757E-4,-1.036991E-1,-2.4888964E-2],"split_indices":[1,12,5,15,15,7,5,0,0,0,0,0,0,0,0],"split_type":[0,0,0,0,0,0,0,0,0,0,0,0,0,0,0],"sum_hessian":[1.962696E4,1.3796586E4,5.830375E3,8.1765576E3,5.6200283E3,5.426219E3,4.0415582E2,8.1311127E2,7.3634463E3,9.530949E2,4.6669336E3,2.0910786E3,3.3351409E3,5.1720066E0,3.9898383E2],"tree_param":{"num_deleted":"0","num_feature":"17","num_nodes":"15","size_leaf_vector":"1"}},{"base_weights":[-8.422823E-5,-1.2757647E-1,1.3038272E-2,-1.6706745E-1,-4.5611635E-2,-1.7675535E-1,2.1425962E-2,-9.400218E-3,-2.4603618E-2,-1.4421235E-2,6.2100054E-3,-2.1449376E-2,6.43668E-2,6.957974E-3,-2.3357912E-3],"categories":[],"categories_nodes":[],"categories_segments":[],"categories_sizes":[],"default_left":[0,0,0,0,0,0,0,0,0,0,0,0,0,0,0],"id":23,"left_children":[1,3,5,7,9,11,13,-1,-1,-1,-1,-1,-1,-1,-1],"loss_changes":[3.2814293E1,5.917183E0,2.8313784E1,7.101986E0,6.3443484E0,2.344468E1,3.6730648E1,0E0,0E0,0E0,0E0,0E0,0E0,0E0,0E0],"parents":[2147483647,0,0,1,1,2,2,3,3,4,4,5,5,6,6],"right_children":[2,4,6,8,10,12,14,-1,-1,-1,-1,-1,-1,-1,-1],"split_conditions":[3.2E1,2.8E1,9.463946E-1,2.774735E1,9.463946E-1,1E0,3.203423E1,-9.400218E-3,-2.4603618E-2,-1.4421235E-2,6.2100054E-3,-2.1449376E-2,6.43668E-2,6.957974E-3,-2.3357912E-3],"split_indices":[14,15,6,14,7,0,14,0,0,0,0,0,0,0,0],"split_type":[0,0,0,0,0,0,0,0,0,0,0,0,0,0,0],"sum_hessian":[1.9611848E4,1.82941E3,1.7782438E4,1.2338823E3,5.955278E2,7.517622E2,1.7030676E4,6.420345E2,5.918478E2,3.107365E2,2.8479123E2,7.194089E2,3.2353302E1,8.206307E3,8.824368E3],"tree_param":{"num_deleted":"0","num_feature":"17","num_nodes":"15","size_leaf_vector":"1"}},{"base_weights":[-7.914144E-5,2.50073E-2,-5.9509654E-2,3.8518578E-2,-1.488518E-1,-4.6288926E-2,-2.3752213E-1,2.4300782E-4,8.916616E-3,-8.372226E-3,-2.469549E-2,-1.1282364E-2,-4.6487534E-4,-9.777299E-2,-2.2591481E-2],"categories":[],"categories_nodes":[],"categories_segments":[],"categories_sizes":[],"default_left":[0,0,0,0,0,0,0,0,0,0,0,0,0,0,0],"id":24,"left_children":[1,3,5,7,9,11,13,-1,-1,-1,-1,-1,-1,-1,-1],"loss_changes":[2.9217909E1,3.2377033E1,1.3678949E1,2.3372942E1,6.3298855E0,1.5004728E1,3.2322369E0,0E0,0E0,0E0,0E0,0E0,0E0,0E0,0E0],"parents":[2147483647,0,0,1,1,2,2,3,3,4,4,5,5,6,6],"right_children":[2,4,6,8,10,12,14,-1,-1,-1,-1,-1,-1,-1,-1],"split_conditions":[3.3483547E-3,3.3E1,3.9807236E-1,1.5987849E-1,5.831215E1,7.944202E-1,5.9710854E-1,2.4300782E-4,8.916616E-3,-8.372226E-3,-2.469549E-2,-1.1282364E-2,-4.6487534E-4,-9.777299E-2,-2.2591481E-2],"split_indices":[1,15,5,12,15,12,5,0,0,0,0,0,0,0,0],"split_type":[0,0,0,0,0,0,0,0,0,0,0,0,0,0,0],"sum_hessian":[1.9595498E4,1.3779542E4,5.8159565E3,1.2786622E4,9.929204E2,5.4150483E3,4.0090778E2,7.4670723E3,5.3195493E3,5.978608E2,3.9505963E2,2.0837773E3,3.3312712E3,4.9045854E0,3.960032E2],"tree_param":{"num_deleted":"0","num_feature":"17","num_nodes":"15","size_leaf_vector":"1"}},{"base_weights":[-8.161823E-5,-5.6484092E-2,2.4588715E-2,3.272793E-2,-1.3486584E-1,9.042182E-2,-2.6488382E-2,-1.3867715E-2,8.520244E-3,-3.1861585E-2,-3.2049275E-3,-2.118211E-2,1.0857127E-2,-6.2267683E-3,1.3586134E-3],"categories":[],"categories_nodes":[],"categories_segments":[],"categories_sizes":[],"default_left":[0,0,0,0,0,0,0,0,0,0,0,0,0,0,0],"id":25,"left_children":[1,3,5,7,9,11,13,-1,-1,-1,-1,-1,-1,-1,-1],"loss_changes":[2.7250263E1,4.1675575E1,4.5815643E1,2.508744E1,5.992471E1,3.267654E1,1.1002457E1,0E0,0E0,0E0,0E0,0E0,0E0,0E0,0E0],"parents":[2147483647,0,0,1,1,2,2,3,3,4,4,5,5,6,6],"right_children":[2,4,6,8,10,12,14,-1,-1,-1,-1,-1,-1,-1,-1],"split_conditions":[3.1E1,2.4E1,3.203423E1,3.1537264E1,2.8E1,9.463946E-1,9.463946E-1,-1.3867715E-2,8.520244E-3,-3.1861585E-2,-3.2049275E-3,-2.118211E-2,1.0857127E-2,-6.2267683E-3,1.3586134E-3],"split_indices":[15,15,14,14,15,6,7,0,0,0,0,0,0,0,0],"split_type":[0,0,0,0,0,0,0,0,0,0,0,0,0,0,0],"sum_hessian":[1.9581826E4,5.958328E3,1.3623499E4,2.7869163E3,3.1714119E3,5.951657E3,7.671842E3,6.5283234E2,2.134084E3,1.1371106E3,2.0343014E3,3.3654233E2,5.6151147E3,4.0528372E3,3.6190046E3],"tree_param":{"num_deleted":"0","num_feature":"17","num_nodes":"15","size_leaf_vector":"1"}},{"base_weights":[-8.25807E-5,2.2445112E-2,-5.3505562E-2,3.481525E-2,-1.3660106E-1,-4.152598E-2,-2.1575436E-1,4.0019755E-4,7.810466E-3,-7.741045E-3,-2.257771E-2,-9.907637E-3,-5.6431786E-4,-7.4173726E-2,-2.0001853E-2],"categories":[],"categories_nodes":[],"categories_segments":[],"categories_sizes":[],"default_left":[0,0,0,0,0,0,0,0,0,0,0,0,0,0,0],"id":26,"left_children":[1,3,5,7,9,11,13,-1,-1,-1,-1,-1,-1,-1,-1],"loss_changes":[2.3546886E1,2.7080662E1,1.1270721E1,1.7033146E1,5.2257347E0,1.1162169E1,3.1522846E0,0E0,0E0,0E0,0E0,0E0,0E0,0E0,0E0],"parents":[2147483647,0,0,1,1,2,2,3,3,4,4,5,5,6,6],"right_children":[2,4,6,8,10,12,14,-1,-1,-1,-1,-1,-1,-1,-1],"split_conditions":[3.3483547E-3,3.3E1,3.9807236E-1,1.5987849E-1,5.831215E1,7.944202E-1,1.7027899E1,4.0019755E-4,7.810466E-3,-7.741045E-3,-2.257771E-2,-9.907637E-3,-5.6431786E-4,-7.4173726E-2,-2.0001853E-2],"split_indices":[1,15,5,12,15,12,14,0,0,0,0,0,0,0,0],"split_type":[0,0,0,0,0,0,0,0,0,0,0,0,0,0,0],"sum_hessian":[1.9563398E4,1.3761116E4,5.802282E3,1.2768779E4,9.923366E2,5.404499E3,3.9778336E2,7.4599214E3,5.308858E3,5.975685E2,3.947681E2,2.074909E3,3.3295898E3,1.0214627E1,3.8756873E2],"tree_param":{"num_deleted":"0","num_feature":"17","num_nodes":"15","size_leaf_vector":"1"}},{"base_weights":[-8.2936596E-5,-5.090682E-2,2.2124197E-2,4.3414794E-2,-1.1335235E-1,8.2055286E-2,-2.4299935E-2,3.2752627E-3,6.768539E-2,-2.2319159E-2,-2.9901192E-3,1.0966564E-2,-8.296255E-3,-2.7230619E-2,-1.8916943E-3],"categories":[],"categories_nodes":[],"categories_segments":[],"categories_sizes":[],"default_left":[0,0,0,0,0,0,0,0,0,0,0,0,0,0,0],"id":27,"left_children":[1,3,5,7,9,11,13,-1,-1,-1,-1,-1,-1,-1,-1],"loss_changes":[2.2068176E1,3.5023926E1,3.7860428E1,1.597785E1,3.2785553E1,2.7071796E1,1.023226E1,0E0,0E0,0E0,0E0,0E0,0E0,0E0,0E0],"parents":[2147483647,0,0,1,1,2,2,3,3,4,4,5,5,6,6],"right_children":[2,4,6,8,10,12,14,-1,-1,-1,-1,-1,-1,-1,-1],"split_conditions":[3.1E1,2.2E1,3.203423E1,3.4E1,2.8E1,3.2E1,9.463946E-1,3.2752627E-3,6.768539E-2,-2.2319159E-2,-2.9901192E-3,1.0966564E-2,-8.296255E-3,-2.7230619E-2,-1.8916943E-3],"split_indices":[15,15,14,14,15,15,0,0,0,0,0,0,0,0,0],"split_type":[0,0,0,0,0,0,0,0,0,0,0,0,0,0,0],"sum_hessian":[1.9550674E4,5.944539E3,1.3606135E4,2.3680276E3,3.5765115E3,5.938753E3,7.667382E3,2.3298625E3,3.816499E1,1.5433995E3,2.0331118E3,5.0878096E3,8.509434E2,1.6183221E2,7.50555E3],"tree_param":{"num_deleted":"0","num_feature":"17","num_nodes":"15","size_leaf_vector":"1"}},{"base_weights":[-7.6915974E-5,1.971124E-2,-4.705463E-2,3.03681E-2,-1.17090926E-1,-3.621427E-2,-1.9472963E-1,-1.3865023E-2,3.741432E-3,7.041197E-2,-1.2232664E-2,-1.5039513E-2,-2.145371E-3,-9.14701E-2,-1.839621E-2],"categories":[],"categories_nodes":[],"categories_segments":[],"categories_sizes":[],"default_left":[0,0,0,0,0,0,0,0,0,0,0,0,0,0,0],"id":28,"left_children":[1,3,5,7,9,11,13,-1,-1,-1,-1,-1,-1,-1,-1],"loss_changes":[1.8161915E1,2.004478E1,9.262652E0,1.5194581E1,4.35861E0,9.090583E0,2.8998232E0,0E0,0E0,0E0,0E0,0E0,0E0,0E0,0E0],"parents":[2147483647,0,0,1,1,2,2,3,3,4,4,5,5,6,6],"right_children":[2,4,6,8,10,12,14,-1,-1,-1,-1,-1,-1,-1,-1],"split_conditions":[3.3483547E-3,3.3E1,3.9807236E-1,5.6525695E-1,1.4E1,3.2E1,5.9710854E-1,-1.3865023E-2,3.741432E-3,7.041197E-2,-1.2232664E-2,-1.5039513E-2,-2.145371E-3,-9.14701E-2,-1.839621E-2],"split_indices":[1,15,5,6,14,14,5,0,0,0,0,0,0,0,0],"split_type":[0,0,0,0,0,0,0,0,0,0,0,0,0,0,0],"sum_hessian":[1.9535299E4,1.374581E4,5.789489E3,1.2753122E4,9.926877E2,5.394724E3,3.9476462E2,5.096408E2,1.2243481E4,5.443229E0,9.8724445E2,6.1650885E2,4.7782153E3,4.579895E0,3.9018472E2],"tree_param":{"num_deleted":"0","num_feature":"17","num_nodes":"15","size_leaf_vector":"1"}},{"base_weights":[-7.613149E-5,-4.478492E-2,1.9439846E-2,3.1891618E-2,-1.1236049E-1,7.406174E-2,-2.2816755E-2,-1.1676632E-2,7.711877E-3,-2.6614746E-2,-2.7407592E-3,-1.8118838E-2,8.933193E-3,-2.43768E-2,-1.8065114E-3],"categories":[],"categories_nodes":[],"categories_segments":[],"categories_sizes":[],"default_left":[0,0,0,0,0,0,0,0,0,0,0,0,0,0,0],"id":29,"left_children":[1,3,5,7,9,11,13,-1,-1,-1,-1,-1,-1,-1,-1],"loss_changes":[1.7035635E1,3.074438E1,3.1372581E1,1.8700304E1,4.1195953E1,2.312408E1,8.041751E0,0E0,0E0,0E0,0E0,0E0,0E0,0E0,0E0],"parents":[2147483647,0,0,1,1,2,2,3,3,4,4,5,5,6,6],"right_children":[2,4,6,8,10,12,14,-1,-1,-1,-1,-1,-1,-1,-1],"split_conditions":[3.1E1,2.4E1,3.203423E1,3.1537264E1,2.8E1,9.463946E-1,9.463946E-1,-1.1676632E-2,7.711877E-3,-2.6614746E-2,-2.7407592E-3,-1.8118838E-2,8.933193E-3,-2.43768E-2,-1.8065114E-3],"split_indices":[15,15,14,14,15,6,0,0,0,0,0,0,0,0,0],"split_type":[0,0,0,0,0,0,0,0,0,0,0,0,0,0,0],"sum_hessian":[1.9522285E4,5.9318433E3,1.3590442E4,2.779047E3,3.1527961E3,5.927571E3,7.662872E3,6.478932E2,2.1311538E3,1.121128E3,2.0316681E3,3.339831E2,5.5935874E3,1.6026468E2,7.5026074E3],"tree_param":{"num_deleted":"0","num_feature":"17","num_nodes":"15","size_leaf_vector":"1"}},{"base_weights":[-7.759411E-5,-2.8019167E-2,2.9742887E-2,1.1034705E-1,-4.793699E-2,-8.5171066E-2,6.1977256E-2,-9.426604E-3,1.712693E-2,-2.733219E-2,-3.2639054E-3,-1.7473884E-3,-1.9659968E-2,1.1515199E-2,8.4158295E-4],"categories":[],"categories_nodes":[],"categories_segments":[],"categories_sizes":[],"default_left":[0,0,0,0,0,0,0,0,0,0,0,0,0,0,0],"id":30,"left_children":[1,3,5,7,9,11,13,-1,-1,-1,-1,-1,-1,-1,-1],"loss_changes":[1.6253511E1,2.7759287E1,3.4958076E1,1.5816674E1,3.0346676E1,1.5592435E1,2.098838E1,0E0,0E0,0E0,0E0,0E0,0E0,0E0,0E0],"parents":[2147483647,0,0,1,1,2,2,3,3,4,4,5,5,6,6],"right_children":[2,4,6,8,10,12,14,-1,-1,-1,-1,-1,-1,-1,-1],"split_conditions":[9.463946E-1,2.3E1,2.8E1,3.1353872E1,2.8E1,2E1,3.203423E1,-9.426604E-3,1.712693E-2,-2.733219E-2,-3.2639054E-3,-1.7473884E-3,-1.9659968E-2,1.1515199E-2,8.4158295E-4],"split_indices":[7,15,15,14,15,15,14,0,0,0,0,0,0,0,0],"split_type":[0,0,0,0,0,0,0,0,0,0,0,0,0,0,0],"sum_hessian":[1.9504605E4,1.0069561E4,9.435044E3,1.2665415E3,8.80302E3,2.0664846E3,7.3685596E3,2.9045938E2,9.7608215E2,5.5845294E2,8.244566E3,1.2862157E3,7.802689E2,3.6970508E3,3.671509E3],"tree_param":{"num_deleted":"0","num_feature":"17","num_nodes":"15","size_leaf_vector":"1"}},{"base_weights":[-7.501682E-5,5.018783E-3,-1.5405342E-1,2.331893E-2,-4.2635962E-2,-2.6563594E-1,-3.9119337E-2,-1.5939094E-4,5.863491E-3,-8.895474E-2,-3.8040818E-3,8.0701366E-2,-2.8189585E-2,-2.6241476E-2,-1.3937111E-3],"categories":[],"categories_nodes":[],"categories_segments":[],"categories_sizes":[],"default_left":[0,0,0,0,0,0,0,0,0,0,0,0,0,0,0],"id":31,"left_children":[1,3,5,7,9,11,13,-1,-1,-1,-1,-1,-1,-1,-1],"loss_changes":[1.5291557E1,1.6458977E1,7.996106E0,1.1997577E1,2.03455E1,5.749357E0,1.7322261E0,0E0,0E0,0E0,0E0,0E0,0E0,0E0,0E0],"parents":[2147483647,0,0,1,1,2,2,3,3,4,4,5,5,6,6],"right_children":[2,4,6,8,10,12,14,-1,-1,-1,-1,-1,-1,-1,-1],"split_conditions":[5.8E1,3.1688649E-3,7.944202E-1,8.1546485E-1,3.492861E-1,1.4E1,3E1,-1.5939094E-4,5.863491E-3,-8.895474E-2,-3.8040818E-3,8.0701366E-2,-2.8189585E-2,-2.6241476E-2,-1.3937111E-3],"split_indices":[15,5,12,7,5,14,14,0,0,0,0,0,0,0,0],"split_type":[0,0,0,0,0,0,0,0,0,0,0,0,0,0,0],"sum_hessian":[1.9494219E4,1.8870912E4,6.2330615E2,1.3635271E4,5.2356406E3,3.1559903E2,3.077071E2,7.9957847E3,5.6394863E3,2.7214808E1,5.2084263E3,3.9864275E0,3.116126E2,3.0230152E1,2.7747696E2],"tree_param":{"num_deleted":"0","num_feature":"17","num_nodes":"15","size_leaf_vector":"1"}},{"base_weights":[-7.381415E-5,-3.856663E-2,1.6698E-2,2.6440142E-2,-9.605407E-2,6.358831E-2,-1.9515034E-2,1.0263229E-2,-3.747598E-3,-2.1925127E-2,-2.8823258E-3,-1.6130747E-2,7.6998533E-3,-2.1476435E-2,-1.5359242E-3],"categories":[],"categories_nodes":[],"categories_segments":[],"categories_sizes":[],"default_left":[0,0,0,0,0,0,0,0,0,0,0,0,0,0,0],"id":32,"left_children":[1,3,5,7,9,11,13,-1,-1,-1,-1,-1,-1,-1,-1],"loss_changes":[1.2580533E1,2.2103115E1,2.3048527E1,1.3523724E1,2.5990131E1,1.7850702E1,6.2114434E0,0E0,0E0,0E0,0E0,0E0,0E0,0E0,0E0],"parents":[2147483647,0,0,1,1,2,2,3,3,4,4,5,5,6,6],"right_children":[2,4,6,8,10,12,14,-1,-1,-1,-1,-1,-1,-1,-1],"split_conditions":[3.1E1,2.4E1,3.203423E1,3.1546488E-1,2.8E1,9.463946E-1,9.463946E-1,1.0263229E-2,-3.747598E-3,-2.1925127E-2,-2.8823258E-3,-1.6130747E-2,7.6998533E-3,-2.1476435E-2,-1.5359242E-3],"split_indices":[15,15,14,7,15,6,0,0,0,0,0,0,0,0,0],"split_type":[0,0,0,0,0,0,0,0,0,0,0,0,0,0,0],"sum_hessian":[1.9484748E4,5.9128735E3,1.3571875E4,2.7752085E3,3.1376648E3,5.9137383E3,7.658137E3,1.2657487E3,1.5094598E3,1.1069575E3,2.0307073E3,3.32164E2,5.581574E3,1.5854666E2,7.4995903E3],"tree_param":{"num_deleted":"0","num_feature":"17","num_nodes":"15","size_leaf_vector":"1"}},{"base_weights":[-7.2873656E-5,4.5946683E-3,-1.4133318E-1,-3.47605E-2,2.2558503E-2,-2.544703E-1,-4.7132842E-2,2.379324E-3,-8.665286E-3,7.0471126E-3,-1.3032395E-3,9.315578E-2,-2.731709E-2,-2.1728285E-2,-1.967751E-3],"categories":[],"categories_nodes":[],"categories_segments":[],"categories_sizes":[],"default_left":[0,0,0,0,0,0,0,0,0,0,0,0,0,0,0],"id":33,"left_children":[1,3,5,7,9,11,13,-1,-1,-1,-1,-1,-1,-1,-1],"loss_changes":[1.2839074E1,1.332705E1,6.6259403E0,1.7953327E1,2.2071817E1,6.5256863E0,1.5891322E0,0E0,0E0,0E0,0E0,0E0,0E0,0E0,0E0],"parents":[2147483647,0,0,1,1,2,2,3,3,4,4,5,5,6,6],"right_children":[2,4,6,8,10,12,14,-1,-1,-1,-1,-1,-1,-1,-1],"split_conditions":[5.8E1,3.1E1,1.5987849E-1,2.4E1,3.203423E1,1.4E1,3E1,2.379324E-3,-8.665286E-3,7.0471126E-3,-1.3032395E-3,9.315578E-2,-2.731709E-2,-2.1728285E-2,-1.967751E-3],"split_indices":[15,15,3,15,14,14,14,0,0,0,0,0,0,0,0],"split_type":[0,0,0,0,0,0,0,0,0,0,0,0,0,0,0],"sum_hessian":[1.9470678E4,1.8848838E4,6.218384E2,5.9069526E3,1.2941886E4,2.8174896E2,3.4008945E2,2.7755964E3,3.131356E3,5.5156772E3,7.426209E3,3.6157668E0,2.781332E2,4.6291466E1,2.9379797E2],"tree_param":{"num_deleted":"0","num_feature":"17","num_nodes":"15","size_leaf_vector":"1"}},{"base_weights":[-6.399213E-5,1.5568738E-2,-4.0331393E-2,2.4395978E-2,-1.0042313E-1,-8.4325993E-1,-3.597207E-2,1.456797E-4,5.596132E-3,5.657829E-2,-1.0468501E-2,-4.250945E-3,-9.076973E-2,-2.6082457E-3,-2.0511037E-2],"categories":[],"categories_nodes":[],"categories_segments":[],"categories_sizes":[],"default_left":[0,0,0,0,0,0,0,0,0,0,0,0,0,0,0],"id":34,"left_children":[1,3,5,7,9,11,13,-1,-1,-1,-1,-1,-1,-1,-1],"loss_changes":[1.22526455E1,1.4358493E1,1.9022488E1,9.434964E0,2.8751516E0,1.4757748E0,9.05233E0,0E0,0E0,0E0,0E0,0E0,0E0,0E0,0E0],"parents":[2147483647,0,0,1,1,2,2,3,3,4,4,5,5,6,6],"right_children":[2,4,6,8,10,12,14,-1,-1,-1,-1,-1,-1,-1,-1],"split_conditions":[3.1688649E-3,3.3E1,3.492861E-1,7.51835E-1,1.4E1,7.950865E-1,3.862551E-1,1.456797E-4,5.596132E-3,5.657829E-2,-1.0468501E-2,-4.250945E-3,-9.076973E-2,-2.6082457E-3,-2.0511037E-2],"split_indices":[5,15,5,7,14,0,10,0,0,0,0,0,0,0,0],"split_type":[0,0,0,0,0,0,0,0,0,0,0,0,0,0,0],"sum_hessian":[1.9462422E4,1.4020107E4,5.4423145E3,1.3029335E4,9.907718E2,2.8349121E1,5.4139653E3,7.5463174E3,5.4830176E3,5.460398E0,9.853114E2,2.2349944E0,2.6114128E1,5.115985E3,2.9798038E2],"tree_param":{"num_deleted":"0","num_feature":"17","num_nodes":"15","size_leaf_vector":"1"}},{"base_weights":[-6.409419E-5,-1.1846874E-3,5.298192E-1,-2.373816E-2,2.2916617E-2,6.4659667E-1,-1.7146814E-1,8.933253E-3,-3.9995024E-3,-7.1608834E-3,4.9348515E-3,8.0085024E-2,4.9013715E-2,-9.107145E-2,2.6851108E-2],"categories":[],"categories_nodes":[],"categories_segments":[],"categories_sizes":[],"default_left":[0,0,0,0,0,0,0,0,0,0,0,0,0,0,0],"id":35,"left_children":[1,3,5,7,9,11,13,-1,-1,-1,-1,-1,-1,-1,-1],"loss_changes":[1.15524025E1,1.0553628E1,3.4732714E0,1.8440044E1,2.3453564E1,4.619856E-1,2.4078982E0,0E0,0E0,0E0,0E0,0E0,0E0,0E0,0E0],"parents":[2147483647,0,0,1,1,2,2,3,3,4,4,5,5,6,6],"right_children":[2,4,6,8,10,12,14,-1,-1,-1,-1,-1,-1,-1,-1],"split_conditions":[1E0,9.463946E-1,5.9727407E-1,2.3E1,2.8E1,3.203423E1,1.6E1,8.933253E-3,-3.9995024E-3,-7.1608834E-3,4.9348515E-3,8.0085024E-2,4.9013715E-2,-9.107145E-2,2.6851108E-2],"split_indices":[0,7,2,15,15,14,15,0,0,0,0,0,0,0,0],"split_type":[0,0,0,0,0,0,0,0,0,0,0,0,0,0,0],"sum_hessian":[1.9453521E4,1.9413463E4,4.0057682E1,1.0028772E4,9.384691E3,3.4406364E1,5.6513186E0,1.2600817E3,8.768691E3,2.0503923E3,7.334299E3,1.5251407E1,1.9154959E1,1.7093654E0,3.9419532E0],"tree_param":{"num_deleted":"0","num_feature":"17","num_nodes":"15","size_leaf_vector":"1"}},{"base_weights":[-5.3456228E-5,1.4378786E-2,-3.725247E-2,2.2267167E-2,-8.922251E-2,-7.91131E-1,-3.330616E-2,2.1089425E-3,4.552729E-2,5.204449E-2,-9.311668E-3,-3.85169E-3,-8.5407935E-2,-2.8816802E-2,-2.7687077E-3],"categories":[],"categories_nodes":[],"categories_segments":[],"categories_sizes":[],"default_left":[0,0,0,0,0,0,0,0,0,0,0,0,0,0,0],"id":36,"left_children":[1,3,5,7,9,11,13,-1,-1,-1,-1,-1,-1,-1,-1],"loss_changes":[1.0443418E1,1.1455775E1,1.6150394E1,6.6323614E0,2.403204E0,1.3064823E0,7.739942E0,0E0,0E0,0E0,0E0,0E0,0E0,0E0,0E0],"parents":[2147483647,0,0,1,1,2,2,3,3,4,4,5,5,6,6],"right_children":[2,4,6,8,10,12,14,-1,-1,-1,-1,-1,-1,-1,-1],"split_conditions":[3.1688649E-3,3.3E1,3.492861E-1,1E0,1.4E1,7.950865E-1,2.2E1,2.1089425E-3,4.552729E-2,5.204449E-2,-9.311668E-3,-3.85169E-3,-8.5407935E-2,-2.8816802E-2,-2.7687077E-3],"split_indices":[5,15,5,0,14,0,14,0,0,0,0,0,0,0,0],"split_type":[0,0,0,0,0,0,0,0,0,0,0,0,0,0,0],"sum_hessian":[1.9450588E4,1.4014099E4,5.4364893E3,1.30232705E4,9.908289E2,2.7271336E1,5.409218E3,1.298899E4,3.4280277E1,5.4467125E0,9.853822E2,2.2293205E0,2.5042015E1,1.1560272E2,5.293615E3],"tree_param":{"num_deleted":"0","num_feature":"17","num_nodes":"15","size_leaf_vector":"1"}},{"base_weights":[-5.2362026E-5,3.0929972E-3,-1.5401062E-1,-2.0142421E-2,2.8487705E-2,-6.443862E-1,-1.400469E-1,8.427542E-3,-3.5000953E-3,-5.605675E-3,5.158631E-3,-4.74092E-2,-9.021319E-2,-8.479323E-2,-1.2986101E-2],"categories":[],"categories_nodes":[],"categories_segments":[],"categories_sizes":[],"default_left":[0,0,0,0,0,0,0,0,0,0,0,0,0,0,0],"id":37,"left_children":[1,3,5,7,9,11,13,-1,-1,-1,-1,-1,-1,-1,-1],"loss_changes":[9.416243E0,1.124443E1,2.5755014E0,1.5442535E1,1.778394E1,3.322363E-2,2.62843E0,0E0,0E0,0E0,0E0,0E0,0E0,0E0,0E0],"parents":[2147483647,0,0,1,1,2,2,3,3,4,4,5,5,6,6],"right_children":[2,4,6,8,10,12,14,-1,-1,-1,-1,-1,-1,-1,-1],"split_conditions":[3.9807236E-1,9.463946E-1,1.7027899E1,2.3E1,2.8E1,1.6E1,5.9710854E-1,8.427542E-3,-3.5000953E-3,-5.605675E-3,5.158631E-3,-4.74092E-2,-9.021319E-2,-8.479323E-2,-1.2986101E-2],"split_indices":[5,7,14,15,15,15,5,0,0,0,0,0,0,0,0],"split_type":[0,0,0,0,0,0,0,0,0,0,0,0,0,0,0],"sum_hessian":[1.9442855E4,1.9054553E4,3.883036E2,9.950417E3,9.104135E3,9.501033E0,3.7880255E2,1.2389645E3,8.711452E3,1.9533065E3,7.1508286E3,7.430822E0,2.0702112E0,4.2066765E0,3.745959E2],"tree_param":{"num_deleted":"0","num_feature":"17","num_nodes":"15","size_leaf_vector":"1"}},{"base_weights":[-6.0429797E-5,1.300934E-2,-3.3778142E-2,1.743442E-2,-1.4019465E-1,-7.4271977E-1,-3.0199798E-2,8.07828E-3,1.0408735E-3,-1.936001E-2,2.502173E-3,-3.501319E-3,-8.0427065E-2,-2.5782362E-2,-2.5243897E-3],"categories":[],"categories_nodes":[],"categories_segments":[],"categories_sizes":[],"default_left":[0,0,0,0,0,0,0,0,0,0,0,0,0,0,0],"id":38,"left_children":[1,3,5,7,9,11,13,-1,-1,-1,-1,-1,-1,-1,-1],"loss_changes":[8.567067E0,9.500307E0,1.3754005E1,6.059833E0,3.476047E0,1.1579914E0,6.0900116E0,0E0,0E0,0E0,0E0,0E0,0E0,0E0,0E0],"parents":[2147483647,0,0,1,1,2,2,3,3,4,4,5,5,6,6],"right_children":[2,4,6,8,10,12,14,-1,-1,-1,-1,-1,-1,-1,-1],"split_conditions":[3.1688649E-3,5.831215E1,3.492861E-1,2.1E1,5.9226166E1,7.950865E-1,2.2E1,8.07828E-3,1.0408735E-3,-1.936001E-2,2.502173E-3,-3.501319E-3,-8.0427065E-2,-2.5782362E-2,-2.5243897E-3],"split_indices":[5,15,5,15,15,0,14,0,0,0,0,0,0,0,0],"split_type":[0,0,0,0,0,0,0,0,0,0,0,0,0,0,0],"sum_hessian":[1.9438443E4,1.4008888E4,5.4295566E3,1.3616481E4,3.924065E2,2.623039E1,5.403326E3,1.3583322E3,1.2258149E4,2.9641873E2,9.598778E1,2.2243087E0,2.4006083E1,1.1404903E2,5.289277E3],"tree_param":{"num_deleted":"0","num_feature":"17","num_nodes":"15","size_leaf_vector":"1"}},{"base_weights":[-6.3499036E-5,-9.93245E-4,4.5106128E-1,-8.758342E-2,4.40844E-3,5.646313E-1,-2.0773989E-1,4.234185E-2,-1.0223086E-2,-3.2547254E-3,1.950158E-3,7.186654E-2,4.138803E-2,-8.851319E-2,2.0689813E-2],"categories":[],"categories_nodes":[],"categories_segments":[],"categories_sizes":[],"default_left":[0,0,0,0,0,0,0,0,0,0,0,0,0,0,0],"id":39,"left_children":[1,3,5,7,9,11,13,-1,-1,-1,-1,-1,-1,-1,-1],"loss_changes":[8.151273E0,9.071627E0,3.1078796E0,8.56744E0,1.0183538E1,5.0047207E-1,2.0392227E0,0E0,0E0,0E0,0E0,0E0,0E0,0E0,0E0],"parents":[2147483647,0,0,1,1,2,2,3,3,4,4,5,5,6,6],"right_children":[2,4,6,8,10,12,14,-1,-1,-1,-1,-1,-1,-1,-1],"split_conditions":[1E0,9.463946E-1,5.9727407E-1,1.7E1,3.1E1,3.203423E1,1.6E1,4.234185E-2,-1.0223086E-2,-3.2547254E-3,1.950158E-3,7.186654E-2,4.138803E-2,-8.851319E-2,2.0689813E-2],"split_indices":[0,6,2,14,15,14,15,0,0,0,0,0,0,0,0],"split_type":[0,0,0,0,0,0,0,0,0,0,0,0,0,0,0],"sum_hessian":[1.9432033E4,1.9393062E4,3.897035E1,1.1378511E3,1.825521E4,3.3362045E1,5.608304E0,3.0929052E1,1.106922E3,5.2933174E3,1.2961894E4,1.4638004E1,1.8724043E1,1.6986002E0,3.9097037E0],"tree_param":{"num_deleted":"0","num_feature":"17","num_nodes":"15","size_leaf_vector":"1"}},{"base_weights":[-5.357912E-5,2.4480266E-3,-1.5254843E-1,-1.876247E-2,2.5810163E-2,-1.6024502E-1,1.0427538E-1,7.1666264E-3,-3.178137E-3,-4.7940663E-3,4.5933025E-3,-1.5399269E-2,-8.777328E-2],"categories":[],"categories_nodes":[],"categories_segments":[],"categories_sizes":[],"default_left":[0,0,0,0,0,0,0,0,0,0,0,0,0],"id":40,"left_children":[1,3,5,7,9,11,-1,-1,-1,-1,-1,-1,-1],"loss_changes":[7.411452E0,9.472153E0,3.051805E0,1.1797692E1,1.3501846E1,1.266365E0,0E0,0E0,0E0,0E0,0E0,0E0,0E0],"parents":[2147483647,0,0,1,1,2,2,3,3,4,4,5,5],"right_children":[2,4,6,8,10,12,-1,-1,-1,-1,-1,-1,-1],"split_conditions":[3.862551E-1,9.463946E-1,6.3E1,2.3E1,2.8E1,5.9226166E1,1.0427538E-1,7.1666264E-3,-3.178137E-3,-4.7940663E-3,4.5933025E-3,-1.5399269E-2,-8.777328E-2],"split_indices":[10,7,15,15,15,15,0,0,0,0,0,0,0],"split_type":[0,0,0,0,0,0,0,0,0,0,0,0,0],"sum_hessian":[1.9426074E4,1.911351E4,3.1256412E2,1.0018188E4,9.095321E3,3.1142477E2,1.1393352E0,1.2602235E3,8.757965E3,1.949386E3,7.145935E3,3.0993854E2,1.4862388E0],"tree_param":{"num_deleted":"0","num_feature":"17","num_nodes":"13","size_leaf_vector":"1"}},{"base_weights":[-4.882533E-5,3.4552908E-3,-1.0628802E-1,-2.672984E-2,1.7213248E-2,-1.9239154E-1,-3.5054307E-2,2.331875E-3,-7.114003E-3,6.1142896E-3,-1.536665E-3,7.859732E-2,-2.0801604E-2,-1.859816E-2,-1.100912E-3],"categories":[],"categories_nodes":[],"categories_segments":[],"categories_sizes":[],"default_left":[0,0,0,0,0,0,0,0,0,0,0,0,0,0,0],"id":41,"left_children":[1,3,5,7,9,11,13,-1,-1,-1,-1,-1,-1,-1,-1],"loss_changes":[7.2311034E0,7.809458E0,3.7973223E0,1.3087903E1,1.8488459E1,4.4525137E0,1.2341526E0,0E0,0E0,0E0,0E0,0E0,0E0,0E0,0E0],"parents":[2147483647,0,0,1,1,2,2,3,3,4,4,5,5,6,6],"right_children":[2,4,6,8,10,12,14,-1,-1,-1,-1,-1,-1,-1,-1],"split_conditions":[5.8E1,3.1E1,1.5987849E-1,2.4E1,3.203423E1,1.4E1,3E1,2.331875E-3,-7.114003E-3,6.1142896E-3,-1.536665E-3,7.859732E-2,-2.0801604E-2,-1.859816E-2,-1.100912E-3],"split_indices":[15,15,3,15,14,14,14,0,0,0,0,0,0,0,0],"split_type":[0,0,0,0,0,0,0,0,0,0,0,0,0,0,0],"sum_hessian":[1.9422129E4,1.8802916E4,6.192141E2,5.886631E3,1.2916285E4,2.7957632E2,3.3963782E2,2.7678472E3,3.1187837E3,5.499741E3,7.4165435E3,3.6196477E0,2.7595667E2,4.5748447E1,2.9388937E2],"tree_param":{"num_deleted":"0","num_feature":"17","num_nodes":"15","size_leaf_vector":"1"}},{"base_weights":[-4.226686E-5,1.1766675E-2,-3.0523608E-2,1.8134978E-2,-7.187075E-2,-6.914019E-1,-2.7322294E-2,-7.937255E-3,2.1994517E-3,-6.350273E-3,-3.257738E-2,-2.543551E-3,-7.5196706E-2,-2.3751518E-2,-2.2780604E-3],"categories":[],"categories_nodes":[],"categories_segments":[],"categories_sizes":[],"default_left":[0,0,0,0,0,0,0,0,0,0,0,0,0,0,0],"id":42,"left_children":[1,3,5,7,9,11,13,-1,-1,-1,-1,-1,-1,-1,-1],"loss_changes":[6.9891124E0,7.4553986E0,1.1451992E1,4.896167E0,2.0835924E0,1.033432E0,5.146498E0,0E0,0E0,0E0,0E0,0E0,0E0,0E0,0E0],"parents":[2147483647,0,0,1,1,2,2,3,3,4,4,5,5,6,6],"right_children":[2,4,6,8,10,12,14,-1,-1,-1,-1,-1,-1,-1,-1],"split_conditions":[3.1688649E-3,3.3E1,3.492861E-1,5.9727407E-1,6.3E1,7.950865E-1,2.2E1,-7.937255E-3,2.1994517E-3,-6.350273E-3,-3.257738E-2,-2.543551E-3,-7.5196706E-2,-2.3751518E-2,-2.2780604E-3],"split_indices":[5,15,5,2,15,0,14,0,0,0,0,0,0,0,0],"split_type":[0,0,0,0,0,0,0,0,0,0,0,0,0,0,0],"sum_hessian":[1.9414771E4,1.3993924E4,5.420848E3,1.300452E4,9.8940405E2,2.5095827E1,5.3957524E3,4.9440063E2,1.2510119E4,9.590463E2,3.0357735E1,2.2104115E0,2.2885416E1,1.1303663E2,5.282716E3],"tree_param":{"num_deleted":"0","num_feature":"17","num_nodes":"15","size_leaf_vector":"1"}},{"base_weights":[-4.8309703E-5,-8.9939614E-4,4.1788957E-1,-7.201344E-2,3.5175835E-3,5.261659E-1,-2.022836E-1,3.8975682E-2,-8.540199E-3,-3.7863876E-3,1.305901E-3,6.726318E-2,3.847377E-2,-8.357029E-2,1.8706625E-2],"categories":[],"categories_nodes":[],"categories_segments":[],"categories_sizes":[],"default_left":[0,0,0,0,0,0,0,0,0,0,0,0,0,0,0],"id":43,"left_children":[1,3,5,7,9,11,13,-1,-1,-1,-1,-1,-1,-1,-1],"loss_changes":[6.9038444E0,6.0844264E0,2.7551198E0,7.0365133E0,7.2014914E0,4.4258213E-1,1.7804056E0,0E0,0E0,0E0,0E0,0E0,0E0,0E0,0E0],"parents":[2147483647,0,0,1,1,2,2,3,3,4,4,5,5,6,6],"right_children":[2,4,6,8,10,12,14,-1,-1,-1,-1,-1,-1,-1,-1],"split_conditions":[1E0,9.463946E-1,5.9727407E-1,1.7E1,2.8E1,3.203423E1,1.6E1,3.8975682E-2,-8.540199E-3,-3.7863876E-3,1.305901E-3,6.726318E-2,3.847377E-2,-8.357029E-2,1.8706625E-2],"split_indices":[0,6,2,14,15,14,15,0,0,0,0,0,0,0,0],"split_type":[0,0,0,0,0,0,0,0,0,0,0,0,0,0,0],"sum_hessian":[1.940705E4,1.9368607E4,3.844428E1,1.1317621E3,1.8236846E4,3.2858994E1,5.585284E0,3.1097574E1,1.1006646E3,3.4164834E3,1.4820362E4,1.4296873E1,1.8562122E1,1.6898015E0,3.8954828E0],"tree_param":{"num_deleted":"0","num_feature":"17","num_nodes":"15","size_leaf_vector":"1"}},{"base_weights":[-4.0136532E-5,-1.7005157E-2,1.8115731E-2,7.973574E-2,-2.8405286E-2,-4.2508133E-2,3.5018396E-2,-5.340558E-4,3.271406E-2,-9.508836E-3,-1.1677274E-3,7.968099E-4,-1.2681228E-2,7.841821E-3,-8.440322E-4],"categories":[],"categories_nodes":[],"categories_segments":[],"categories_sizes":[],"default_left":[0,0,0,0,0,0,0,0,0,0,0,0,0,0,0],"id":44,"left_children":[1,3,5,7,9,11,13,-1,-1,-1,-1,-1,-1,-1,-1],"loss_changes":[5.976577E0,1.1064745E1,9.605856E0,2.2264383E1,1.0009206E1,8.698755E0,1.382552E1,0E0,0E0,0E0,0E0,0E0,0E0,0E0,0E0],"parents":[2147483647,0,0,1,1,2,2,3,3,4,4,5,5,6,6],"right_children":[2,4,6,8,10,12,14,-1,-1,-1,-1,-1,-1,-1,-1],"split_conditions":[9.463946E-1,2.2E1,2.8E1,1.9E1,3E1,2E1,3.203423E1,-5.340558E-4,3.271406E-2,-9.508836E-3,-1.1677274E-3,7.968099E-4,-1.2681228E-2,7.841821E-3,-8.440322E-4],"split_indices":[7,15,15,15,15,15,14,0,0,0,0,0,0,0,0],"split_type":[0,0,0,0,0,0,0,0,0,0,0,0,0,0,0],"sum_hessian":[1.9401547E4,1.0029731E4,9.371814E3,1.0566934E3,8.973038E3,2.0429526E3,7.3288623E3,7.8703143E2,2.696619E2,1.7985947E3,7.174443E3,1.2784183E3,7.645343E2,3.6665134E3,3.6623489E3],"tree_param":{"num_deleted":"0","num_feature":"17","num_nodes":"15","size_leaf_vector":"1"}},{"base_weights":[-3.5988043E-5,2.4405043E-3,-1.2252757E-1,-1.484445E-2,2.135355E-2,-7.9539746E-2,-1.13522835E-1,6.656091E-3,-2.6435277E-3,-3.3968322E-3,3.6421835E-3,-5.7221632E-2,-1.0093387E-2],"categories":[],"categories_nodes":[],"categories_segments":[],"categories_sizes":[],"default_left":[0,0,0,0,0,0,0,0,0,0,0,0,0],"id":45,"left_children":[1,3,5,7,9,-1,11,-1,-1,-1,-1,-1,-1],"loss_changes":[5.88399E0,6.215672E0,2.2386975E0,9.375358E0,7.5695686E0,0E0,2.1392908E0,0E0,0E0,0E0,0E0,0E0,0E0],"parents":[2147483647,0,0,1,1,2,2,3,3,4,4,6,6],"right_children":[2,4,6,8,10,-1,12,-1,-1,-1,-1,-1,-1],"split_conditions":[3.9807236E-1,9.463946E-1,5.9710854E-1,2.3E1,2.8E1,-7.9539746E-2,1.7027899E1,6.656091E-3,-2.6435277E-3,-3.3968322E-3,3.6421835E-3,-5.7221632E-2,-1.0093387E-2],"split_indices":[5,7,5,15,15,0,14,0,0,0,0,0,0],"split_type":[0,0,0,0,0,0,0,0,0,0,0,0,0],"sum_hessian":[1.9394752E4,1.9011367E4,3.8338516E2,9.933337E3,9.07803E3,3.909644E0,3.7947552E2,1.2374768E3,8.69586E3,1.943048E3,7.134983E3,8.949146E0,3.7052637E2],"tree_param":{"num_deleted":"0","num_feature":"17","num_nodes":"13","size_leaf_vector":"1"}},{"base_weights":[-4.0823943E-5,1.0768248E-2,-2.795651E-2,1.6578272E-2,-6.548827E-2,-6.4371544E-1,-2.5090992E-2,6.9514285E-3,1.0399804E-3,8.379188E-3,-7.992299E-3,-8.4444426E-2,-3.6639165E-2,-3.3119482E-3,8.039551E-3],"categories":[],"categories_nodes":[],"categories_segments":[],"categories_sizes":[],"default_left":[0,0,0,0,0,0,0,0,0,0,0,0,0,0,0],"id":46,"left_children":[1,3,5,7,9,11,13,-1,-1,-1,-1,-1,-1,-1,-1],"loss_changes":[5.851759E0,6.1949883E0,9.535164E0,4.2482004E0,2.1398416E0,1.0841427E0,4.5666823E0,0E0,0E0,0E0,0E0,0E0,0E0,0E0,0E0],"parents":[2147483647,0,0,1,1,2,2,3,3,4,4,5,5,6,6],"right_children":[2,4,6,8,10,12,14,-1,-1,-1,-1,-1,-1,-1,-1],"split_conditions":[3.1688649E-3,3.3E1,3.492861E-1,2.1E1,5.9727407E-1,3.6907023E-1,3.3E1,6.9514285E-3,1.0399804E-3,8.379188E-3,-7.992299E-3,-8.4444426E-2,-3.6639165E-2,-3.3119482E-3,8.039551E-3],"split_indices":[5,15,5,15,2,10,15,0,0,0,0,0,0,0,0],"split_type":[0,0,0,0,0,0,0,0,0,0,0,0,0,0,0],"sum_hessian":[1.9391215E4,1.3979073E4,5.4121416E3,1.2990131E4,9.8894226E2,2.4033546E1,5.388108E3,1.356618E3,1.1633513E4,8.677125E1,9.02171E2,1.2755822E1,1.1277723E1,5.007665E3,3.8044305E2],"tree_param":{"num_deleted":"0","num_feature":"17","num_nodes":"15","size_leaf_vector":"1"}},{"base_weights":[-4.4169312E-5,-8.051754E-4,3.7935412E-1,2.162908E-3,-9.0646304E-2,4.8323494E-1,-2.0600039E-1,4.2538723E-4,-1.2561867E-2,-1.5895844E-2,-3.4374413E-3,6.2254187E-2,3.509551E-2,-7.92632E-2,1.5883137E-2],"categories":[],"categories_nodes":[],"categories_segments":[],"categories_sizes":[],"default_left":[0,0,0,0,0,0,0,0,0,0,0,0,0,0,0],"id":47,"left_children":[1,3,5,7,9,11,13,-1,-1,-1,-1,-1,-1,-1,-1],"loss_changes":[5.597994E0,5.159946E0,2.459621E0,5.0054746E0,2.3733912E0,3.94444E-1,1.5279293E0,0E0,0E0,0E0,0E0,0E0,0E0,0E0,0E0],"parents":[2147483647,0,0,1,1,2,2,3,3,4,4,5,5,6,6],"right_children":[2,4,6,8,10,12,14,-1,-1,-1,-1,-1,-1,-1,-1],"split_conditions":[1E0,5.8E1,5.9727407E-1,3.862551E-1,1.5987849E-1,3.203423E1,1.6E1,4.2538723E-4,-1.2561867E-2,-1.5895844E-2,-3.4374413E-3,6.2254187E-2,3.509551E-2,-7.92632E-2,1.5883137E-2],"split_indices":[0,15,2,10,3,14,15,0,0,0,0,0,0,0,0],"split_type":[0,0,0,0,0,0,0,0,0,0,0,0,0,0,0],"sum_hessian":[1.938665E4,1.9348838E4,3.781248E1,1.8730998E4,6.1784045E2,3.226159E1,5.5508933E0,1.8430377E4,3.0062033E2,2.7824084E2,3.3959964E2,1.3908249E1,1.835334E1,1.6788265E0,3.8720672E0],"tree_param":{"num_deleted":"0","num_feature":"17","num_nodes":"15","size_leaf_vector":"1"}},{"base_weights":[-3.962441E-5,-7.2706677E-4,3.4766802E-1,-7.757435E-2,2.5061246E-3,4.4544795E-1,-1.9587237E-1,2.4098202E-3,-1.8401094E-2,1.8764654E-3,-1.4978801E-3,5.7873584E-2,3.2095365E-2,-7.472721E-2,1.4650893E-2],"categories":[],"categories_nodes":[],"categories_segments":[],"categories_sizes":[],"default_left":[0,0,0,0,0,0,0,0,0,0,0,0,0,0,0],"id":48,"left_children":[1,3,5,7,9,11,13,-1,-1,-1,-1,-1,-1,-1,-1],"loss_changes":[4.6337905E0,4.807334E0,2.1202245E0,8.458072E0,5.2786093E0,3.5727644E-1,1.3416469E0,0E0,0E0,0E0,0E0,0E0,0E0,0E0,0E0],"parents":[2147483647,0,0,1,1,2,2,3,3,4,4,5,5,6,6],"right_children":[2,4,6,8,10,12,14,-1,-1,-1,-1,-1,-1,-1,-1],"split_conditions":[1E0,1E0,5.9727407E-1,3.1179497E1,3.203423E1,3.203423E1,1.6E1,2.4098202E-3,-1.8401094E-2,1.8764654E-3,-1.4978801E-3,5.7873584E-2,3.2095365E-2,-7.472721E-2,1.4650893E-2],"split_indices":[0,2,2,14,14,14,15,0,0,0,0,0,0,0,0],"split_type":[0,0,0,0,0,0,0,0,0,0,0,0,0,0,0],"sum_hessian":[1.9383838E4,1.9346588E4,3.7251648E1,7.8017615E2,1.856641E4,3.172497E1,5.5266786E0,3.9941364E2,3.807625E2,9.6205625E3,8.945849E3,1.3559265E1,1.8165705E1,1.6640995E0,3.8625789E0],"tree_param":{"num_deleted":"0","num_feature":"17","num_nodes":"15","size_leaf_vector":"1"}},{"base_weights":[-3.4851713E-5,9.539924E-3,-2.4777735E-2,1.4447699E-2,-5.4863334E-2,-6.031668E-1,-2.2175755E-2,6.2022773E-3,8.8958023E-4,8.434924E-3,-6.834281E-3,-8.001085E-2,-3.3789556E-2,-6.2704445E-3,-1.8982E-4],"categories":[],"categories_nodes":[],"categories_segments":[],"categories_sizes":[],"default_left":[0,0,0,0,0,0,0,0,0,0,0,0,0,0,0],"id":49,"left_children":[1,3,5,7,9,11,13,-1,-1,-1,-1,-1,-1,-1,-1],"loss_changes":[4.5920362E0,4.4180393E0,8.125439E0,3.4295886E0,1.8630748E0,9.9297047E-1,4.425253E0,0E0,0E0,0E0,0E0,0E0,0E0,0E0,0E0],"parents":[2147483647,0,0,1,1,2,2,3,3,4,4,5,5,6,6],"right_children":[2,4,6,8,10,12,14,-1,-1,-1,-1,-1,-1,-1,-1],"split_conditions":[3.1688649E-3,3.3E1,3.492861E-1,2.1E1,5.9727407E-1,3.6907023E-1,9.463946E-1,6.2022773E-3,8.8958023E-4,8.434924E-3,-6.834281E-3,-8.001085E-2,-3.3789556E-2,-6.2704445E-3,-1.8982E-4],"split_indices":[5,15,5,15,2,10,7,0,0,0,0,0,0,0,0],"split_type":[0,0,0,0,0,0,0,0,0,0,0,0,0,0,0],"sum_hessian":[1.9381242E4,1.3974234E4,5.4070073E3,1.2985468E4,9.887668E2,2.318169E1,5.3838257E3,1.35595E3,1.1629518E4,8.682306E1,9.019437E2,1.2147213E1,1.1034476E1,1.7946908E3,3.589135E3],"tree_param":{"num_deleted":"0","num_feature":"17","num_nodes":"15","size_leaf_vector":"1"}},{"base_weights":[-3.88739E-5,-2.1913186E-2,9.463091E-3,1.9480672E-2,-5.8699053E-2,4.1953787E-2,-1.5517602E-2,9.910424E-4,4.801464E-2,-1.4801303E-2,-1.0912521E-3,-1.2629159E-2,5.1876376E-3,-1.6037094E-3,9.3416885E-2],"categories":[],"categories_nodes":[],"categories_segments":[],"categories_sizes":[],"default_left":[0,0,0,0,0,0,0,0,0,0,0,0,0,0,0],"id":50,"left_children":[1,3,5,7,9,11,13,-1,-1,-1,-1,-1,-1,-1,-1],"loss_changes":[4.0278244E0,8.937317E0,1.09659195E1,1.2172478E1,1.3261214E1,9.810398E0,3.7834456E0,0E0,0E0,0E0,0E0,0E0,0E0,0E0,0E0],"parents":[2147483647,0,0,1,1,2,2,3,3,4,4,5,5,6,6],"right_children":[2,4,6,8,10,12,14,-1,-1,-1,-1,-1,-1,-1,-1],"split_conditions":[3.1E1,2.4E1,3.203423E1,3.4E1,2.8E1,9.463946E-1,2E0,9.910424E-4,4.801464E-2,-1.4801303E-2,-1.0912521E-3,-1.2629159E-2,5.1876376E-3,-1.6037094E-3,9.3416885E-2],"split_indices":[15,15,14,14,15,6,16,0,0,0,0,0,0,0,0],"split_type":[0,0,0,0,0,0,0,0,0,0,0,0,0,0,0],"sum_hessian":[1.9376615E4,5.867602E3,1.3509013E4,2.761101E3,3.106501E3,5.871574E3,7.6374385E3,2.705908E3,5.519324E1,1.0820432E3,2.0244578E3,3.2634845E2,5.545226E3,7.6342456E3,3.1929345E0],"tree_param":{"num_deleted":"0","num_feature":"17","num_nodes":"15","size_leaf_vector":"1"}},{"base_weights":[-3.0502204E-5,2.562883E-3,-7.876064E-2,9.760328E-4,1.7431958E-1,5.6521463E-1,-8.403609E-2,-5.765563E-2,1.5044051E-4,8.506667E-2,6.6572516E-3,-4.4006675E-2,9.4075136E-2,-1.5167944E-2,-2.884286E-3],"categories":[],"categories_nodes":[],"categories_segments":[],"categories_sizes":[],"default_left":[0,0,0,0,0,0,0,0,0,0,0,0,0,0,0],"id":51,"left_children":[1,3,5,7,9,11,13,-1,-1,-1,-1,-1,-1,-1,-1],"loss_changes":[3.9546833E0,5.1105065E0,2.145875E0,5.670756E0,1.245223E1,2.357564E0,2.2861714E0,0E0,0E0,0E0,0E0,0E0,0E0,0E0,0E0],"parents":[2147483647,0,0,1,1,2,2,3,3,4,4,5,5,6,6],"right_children":[2,4,6,8,10,12,14,-1,-1,-1,-1,-1,-1,-1,-1],"split_conditions":[5.8E1,5.1E1,1.1E1,7E0,5.5E1,3E0,1.5987849E-1,-5.765563E-2,1.5044051E-4,8.506667E-2,6.6572516E-3,-4.4006675E-2,9.4075136E-2,-1.5167944E-2,-2.884286E-3],"split_indices":[15,15,14,14,15,14,3,0,0,0,0,0,0,0,0],"split_type":[0,0,0,0,0,0,0,0,0,0,0,0,0,0,0],"sum_hessian":[1.9366855E4,1.875019E4,6.1666724E2,1.857954E4,1.706496E2,4.148258E0,6.12519E2,1.5986011E1,1.8563553E4,2.2502493E1,1.4814711E2,1.0814553E0,3.066803E0,2.74433E2,3.3808594E2],"tree_param":{"num_deleted":"0","num_feature":"17","num_nodes":"15","size_leaf_vector":"1"}},{"base_weights":[-2.4760531E-5,-6.4606965E-4,3.1838092E-1,1.1287128E-3,-1.1023014E-1,4.1122755E-1,-1.9127889E-1,-1.3673011E-3,1.7443234E-3,-1.17524145E-2,9.715497E-2,5.4128498E-2,2.918058E-2,-7.094296E-2,1.3114047E-2],"categories":[],"categories_nodes":[],"categories_segments":[],"categories_sizes":[],"default_left":[0,0,0,0,0,0,0,0,0,0,0,0,0,0,0],"id":52,"left_children":[1,3,5,7,9,11,13,-1,-1,-1,-1,-1,-1,-1,-1],"loss_changes":[3.8314996E0,3.759583E0,1.8635316E0,4.59396E0,2.5451062E0,3.4254265E-1,1.1781107E0,0E0,0E0,0E0,0E0,0E0,0E0,0E0,0E0],"parents":[2147483647,0,0,1,1,2,2,3,3,4,4,5,5,6,6],"right_children":[2,4,6,8,10,12,14,-1,-1,-1,-1,-1,-1,-1,-1],"split_conditions":[1E0,3.862551E-1,5.9727407E-1,9.463946E-1,6.3E1,3.203423E1,1.6E1,-1.3673011E-3,1.7443234E-3,-1.17524145E-2,9.715497E-2,5.4128498E-2,2.918058E-2,-7.094296E-2,1.3114047E-2],"split_indices":[0,10,2,7,15,14,15,0,0,0,0,0,0,0,0],"split_type":[0,0,0,0,0,0,0,0,0,0,0,0,0,0,0],"sum_hessian":[1.9365758E4,1.932904E4,3.6719036E1,1.9021957E4,3.0708276E2,3.1223978E1,5.495055E0,9.973465E3,9.048492E3,3.059115E2,1.171275E0,1.3255448E1,1.796853E1,1.6473367E0,3.8477187E0],"tree_param":{"num_deleted":"0","num_feature":"17","num_nodes":"15","size_leaf_vector":"1"}},{"base_weights":[-1.6480586E-5,8.613998E-3,-2.2331288E-2,3.770219E-1,7.901508E-3,-5.625119E-1,-1.9984981E-2,7.2620586E-2,-1.471947E-3,1.2281061E-3,-4.962774E-3,6.7682513E-3,-6.2723204E-2,9.255992E-3,-2.6786632E-3],"categories":[],"categories_nodes":[],"categories_segments":[],"categories_sizes":[],"default_left":[0,0,0,0,0,0,0,0,0,0,0,0,0,0,0],"id":53,"left_children":[1,3,5,7,9,11,13,-1,-1,-1,-1,-1,-1,-1,-1],"loss_changes":[3.7295814E0,3.662563E0,6.834118E0,3.6949463E0,3.5125072E0,9.936371E-1,4.119794E0,0E0,0E0,0E0,0E0,0E0,0E0,0E0,0E0],"parents":[2147483647,0,0,1,1,2,2,3,3,4,4,5,5,6,6],"right_children":[2,4,6,8,10,12,14,-1,-1,-1,-1,-1,-1,-1,-1],"split_conditions":[3.1688649E-3,7.191237E0,3.492861E-1,3.1546488E-1,3.3E1,7.950865E-1,1.447016E1,7.2620586E-2,-1.471947E-3,1.2281061E-3,-4.962774E-3,6.7682513E-3,-6.2723204E-2,9.255992E-3,-2.6786632E-3],"split_indices":[5,14,5,7,15,0,15,0,0,0,0,0,0,0,0],"split_type":[0,0,0,0,0,0,0,0,0,0,0,0,0,0,0],"sum_hessian":[1.936365E4,1.3963672E4,5.3999785E3,2.5933714E1,1.3937738E4,2.2321182E1,5.377657E3,1.3260236E1,1.2673478E1,1.2952485E4,9.8525244E2,2.0745964E0,2.0246586E1,3.057582E2,5.071899E3],"tree_param":{"num_deleted":"0","num_feature":"17","num_nodes":"15","size_leaf_vector":"1"}},{"base_weights":[-1.5303656E-5,-2.024181E-2,8.768365E-3,2.1995309E-1,-2.5534265E-2,3.8312968E-2,-1.3925001E-2,7.30908E-3,6.504127E-2,1.5292268E-3,-5.1984307E-3,-1.1253954E-2,4.717614E-3,-1.4406494E-3,8.6396344E-2],"categories":[],"categories_nodes":[],"categories_segments":[],"categories_sizes":[],"default_left":[0,0,0,0,0,0,0,0,0,0,0,0,0,0,0],"id":54,"left_children":[1,3,5,7,9,11,13,-1,-1,-1,-1,-1,-1,-1,-1],"loss_changes":[3.4397943E0,7.457775E0,9.051257E0,7.9487634E0,6.195671E0,7.8464727E0,3.2399695E0,0E0,0E0,0E0,0E0,0E0,0E0,0E0,0E0],"parents":[2147483647,0,0,1,1,2,2,3,3,4,4,5,5,6,6],"right_children":[2,4,6,8,10,12,14,-1,-1,-1,-1,-1,-1,-1,-1],"split_conditions":[3.1E1,7.950865E-1,3.203423E1,3.3E1,2.1E1,9.463946E-1,2E0,7.30908E-3,6.504127E-2,1.5292268E-3,-5.1984307E-3,-1.1253954E-2,4.717614E-3,-1.4406494E-3,8.6396344E-2],"split_indices":[15,0,14,14,15,6,16,0,0,0,0,0,0,0,0],"split_type":[0,0,0,0,0,0,0,0,0,0,0,0,0,0,0],"sum_hessian":[1.9359354E4,5.8612085E3,1.34981455E4,1.2548716E2,5.735721E3,5.8636035E3,7.634542E3,9.443727E1,3.1049889E1,2.2551865E3,3.4805347E3,3.2474243E2,5.538861E3,7.6313403E3,3.2019515E0],"tree_param":{"num_deleted":"0","num_feature":"17","num_nodes":"15","size_leaf_vector":"1"}},{"base_weights":[-7.1058157E-6,-5.7239726E-4,2.932371E-1,-1.7842343E-3,1.3160156E-1,3.8090023E-1,-1.8294789E-1,-3.1688523E-3,5.536133E-4,5.539847E-2,1.4930511E-3,5.06798E-2,2.67059E-2,-4.452869E-2,3.5370134E-2],"categories":[],"categories_nodes":[],"categories_segments":[],"categories_sizes":[],"default_left":[0,0,0,0,0,0,0,0,0,0,0,0,0,0,0],"id":55,"left_children":[1,3,5,7,9,11,13,-1,-1,-1,-1,-1,-1,-1,-1],"loss_changes":[3.208525E0,3.094497E0,1.624229E0,4.190928E0,8.641495E0,3.200612E-1,1.0677179E0,0E0,0E0,0E0,0E0,0E0,0E0,0E0,0E0],"parents":[2147483647,0,0,1,1,2,2,3,3,4,4,5,5,6,6],"right_children":[2,4,6,8,10,12,14,-1,-1,-1,-1,-1,-1,-1,-1],"split_conditions":[1E0,3.4E1,5.9727407E-1,2.8E1,2.1E1,3.203423E1,2.3E1,-3.1688523E-3,5.536133E-4,5.539847E-2,1.4930511E-3,5.06798E-2,2.67059E-2,-4.452869E-2,3.5370134E-2],"split_indices":[0,14,2,15,15,14,15,0,0,0,0,0,0,0,0],"split_type":[0,0,0,0,0,0,0,0,0,0,0,0,0,0,0],"sum_hessian":[1.9353453E4,1.9317213E4,3.624005E1,1.914269E4,1.7452328E2,3.077469E1,5.465359E0,3.7638267E3,1.5378863E4,3.6961964E1,1.3756133E2,1.2974413E1,1.7800278E1,3.785216E0,1.6801432E0],"tree_param":{"num_deleted":"0","num_feature":"17","num_nodes":"15","size_leaf_vector":"1"}},{"base_weights":[4.937707E-7,-1.2200604E-2,1.3067246E-2,5.3147897E-2,-2.1639047E-2,-3.3408605E-2,2.5996067E-2,-1.2382278E-2,1.0608419E-2,-1.5829815E-2,-1.2647192E-3,5.9795617E-3,-6.527824E-3,5.98916E-3,-7.850343E-4],"categories":[],"categories_nodes":[],"categories_segments":[],"categories_sizes":[],"default_left":[0,0,0,0,0,0,0,0,0,0,0,0,0,0,0],"id":56,"left_children":[1,3,5,7,9,11,13,-1,-1,-1,-1,-1,-1,-1,-1],"loss_changes":[3.0854053E0,6.1739326E0,5.6160336E0,1.1848289E1,1.0744769E1,6.04646E0,8.388721E0,0E0,0E0,0E0,0E0,0E0,0E0,0E0,0E0],"parents":[2147483647,0,0,1,1,2,2,3,3,4,4,5,5,6,6],"right_children":[2,4,6,8,10,12,14,-1,-1,-1,-1,-1,-1,-1,-1],"split_conditions":[9.463946E-1,2.3E1,2.8E1,3.1353872E1,2.8E1,1.447016E1,3.203423E1,-1.2382278E-2,1.0608419E-2,-1.5829815E-2,-1.2647192E-3,5.9795617E-3,-6.527824E-3,5.98916E-3,-7.850343E-4],"split_indices":[7,15,15,14,15,15,14,0,0,0,0,0,0,0,0],"split_type":[0,0,0,0,0,0,0,0,0,0,0,0,0,0,0],"sum_hessian":[1.9350883E4,1.0006947E4,9.343935E3,1.2623365E3,8.744611E3,2.0332671E3,7.3106675E3,2.9034583E2,9.7199066E2,5.3882916E2,8.205782E3,5.1786646E2,1.5154006E3,3.6522986E3,3.6583687E3],"tree_param":{"num_deleted":"0","num_feature":"17","num_nodes":"15","size_leaf_vector":"1"}},{"base_weights":[-1.4992657E-6,2.3178183E-3,-7.0467256E-2,8.6970255E-4,1.5895711E-1,4.9826977E-1,-7.511087E-2,-5.3470075E-2,1.3498652E-4,7.736477E-2,6.109647E-3,-4.3410163E-2,8.5017934E-2,-1.3199218E-2,-2.8827558E-3],"categories":[],"categories_nodes":[],"categories_segments":[],"categories_sizes":[],"default_left":[0,0,0,0,0,0,0,0,0,0,0,0,0,0,0],"id":57,"left_children":[1,3,5,7,9,11,13,-1,-1,-1,-1,-1,-1,-1,-1],"loss_changes":[3.1617284E0,4.2482677E0,1.6654899E0,4.773309E0,1.0272711E1,2.050133E0,1.6082633E0,0E0,0E0,0E0,0E0,0E0,0E0,0E0,0E0],"parents":[2147483647,0,0,1,1,2,2,3,3,4,4,5,5,6,6],"right_children":[2,4,6,8,10,12,14,-1,-1,-1,-1,-1,-1,-1,-1],"split_conditions":[5.8E1,5.1E1,1.1E1,7E0,5.5E1,3E0,1.5987849E-1,-5.3470075E-2,1.3498652E-4,7.736477E-2,6.109647E-3,-4.3410163E-2,8.5017934E-2,-1.3199218E-2,-2.8827558E-3],"split_indices":[15,15,14,14,15,14,3,0,0,0,0,0,0,0,0],"split_type":[0,0,0,0,0,0,0,0,0,0,0,0,0,0,0],"sum_hessian":[1.934378E4,1.872832E4,6.154589E2,1.8557762E4,1.7055925E2,4.1234856E0,6.1133545E2,1.5626362E1,1.8542135E4,2.2475927E1,1.4808331E2,1.0658897E0,3.057596E0,2.7343597E2,3.3789944E2],"tree_param":{"num_deleted":"0","num_feature":"17","num_nodes":"15","size_leaf_vector":"1"}},{"base_weights":[1.063004E-6,7.741248E-3,-2.0019213E-2,3.4991586E-1,7.080463E-3,-5.2244186E-1,-1.7915284E-2,6.5179504E-2,-4.5573735E-3,1.106981E-3,-4.5335684E-3,-3.8720187E-2,-9.893696E-2,-2.511135E-3,7.6410295E-3],"categories":[],"categories_nodes":[],"categories_segments":[],"categories_sizes":[],"default_left":[0,0,0,0,0,0,0,0,0,0,0,0,0,0,0],"id":58,"left_children":[1,3,5,7,9,11,13,-1,-1,-1,-1,-1,-1,-1,-1],"loss_changes":[2.9976637E0,3.1518912E0,5.6921024E0,3.23755E0,2.9123302E0,1.0349965E0,3.648447E0,0E0,0E0,0E0,0E0,0E0,0E0,0E0,0E0],"parents":[2147483647,0,0,1,1,2,2,3,3,4,4,5,5,6,6],"right_children":[2,4,6,8,10,12,14,-1,-1,-1,-1,-1,-1,-1,-1],"split_conditions":[3.1688649E-3,7.191237E0,3.492861E-1,1.3E1,3.3E1,9.463946E-1,3.3E1,6.5179504E-2,-4.5573735E-3,1.106981E-3,-4.5335684E-3,-3.8720187E-2,-9.893696E-2,-2.511135E-3,7.6410295E-3],"split_indices":[5,14,5,15,15,0,15,0,0,0,0,0,0,0,0],"split_type":[0,0,0,0,0,0,0,0,0,0,0,0,0,0,0],"sum_hessian":[1.9342682E4,1.3949987E4,5.3926934E3,2.5868614E1,1.3924119E4,2.1456743E1,5.3712363E3,1.4302996E1,1.15656185E1,1.2940052E4,9.84067E2,1.8056227E1,3.4005158E0,4.991194E3,3.800426E2],"tree_param":{"num_deleted":"0","num_feature":"17","num_nodes":"15","size_leaf_vector":"1"}},{"base_weights":[-4.0406476E-6,1.534305E-3,-9.565027E-2,-1.11218225E-2,1.5484294E-2,-1.0252389E-1,9.0117894E-2,4.553668E-3,-1.9282686E-3,-2.7219658E-3,2.7097724E-3,-9.523391E-3,-7.280098E-2],"categories":[],"categories_nodes":[],"categories_segments":[],"categories_sizes":[],"default_left":[0,0,0,0,0,0,0,0,0,0,0,0,0],"id":59,"left_children":[1,3,5,7,9,11,-1,-1,-1,-1,-1,-1,-1],"loss_changes":[2.845742E0,3.3607888E0,2.1900616E0,4.6157885E0,4.49142E0,1.3211677E0,0E0,0E0,0E0,0E0,0E0,0E0,0E0],"parents":[2147483647,0,0,1,1,2,2,3,3,4,4,5,5],"right_children":[2,4,6,8,10,12,-1,-1,-1,-1,-1,-1,-1],"split_conditions":[3.862551E-1,9.463946E-1,6.3E1,2.3E1,2.8E1,3.4E1,9.0117894E-2,4.553668E-3,-1.9282686E-3,-2.7219658E-3,2.7097724E-3,-9.523391E-3,-7.280098E-2],"split_indices":[10,7,15,15,15,14,0,0,0,0,0,0,0],"split_type":[0,0,0,0,0,0,0,0,0,0,0,0,0],"sum_hessian":[1.9338771E4,1.9033625E4,3.0514725E2,9.979724E3,9.053901E3,3.0394852E2,1.198724E0,1.2558867E3,8.723837E3,1.9354989E3,7.118402E3,3.0158582E2,2.3627014E0],"tree_param":{"num_deleted":"0","num_feature":"17","num_nodes":"13","size_leaf_vector":"1"}},{"base_weights":[-3.5264463E-6,-5.136778E-4,2.680214E-1,-5.7327952E-2,1.8652182E-3,-4.153518E-2,3.1877312E-1,3.8520494E-3,-1.5757577E-2,2.1841004E-2,7.777011E-5,3.3900585E-2,-1.6439825E-2],"categories":[],"categories_nodes":[],"categories_segments":[],"categories_sizes":[],"default_left":[0,0,0,0,0,0,0,0,0,0,0,0,0],"id":60,"left_children":[1,3,5,7,9,-1,11,-1,-1,-1,-1,-1,-1],"loss_changes":[2.6441553E0,2.6087804E0,1.4065497E0,7.459708E0,4.36277E0,0E0,3.9557624E-1,0E0,0E0,0E0,0E0,0E0,0E0],"parents":[2147483647,0,0,1,1,2,2,3,3,4,4,6,6],"right_children":[2,4,6,8,10,-1,12,-1,-1,-1,-1,-1,-1],"split_conditions":[1E0,1E0,1.6E1,3.1179497E1,2E0,-4.153518E-2,3.4E1,3.8520494E-3,-1.5757577E-2,2.1841004E-2,7.777011E-5,3.3900585E-2,-1.6439825E-2],"split_indices":[0,2,14,14,15,0,14,0,0,0,0,0,0],"split_type":[0,0,0,0,0,0,0,0,0,0,0,0,0],"sum_hessian":[1.9336047E4,1.9300309E4,3.57376E1,7.747258E2,1.8525584E4,1.9739758E0,3.3763622E1,3.963681E2,3.7835773E2,9.157446E1,1.843401E4,3.269298E1,1.0706375E0],"tree_param":{"num_deleted":"0","num_feature":"17","num_nodes":"13","size_leaf_vector":"1"}},{"base_weights":[-4.0694763E-6,5.6325865E-4,-2.3403022E-1,2.0279451E-3,-9.090578E-2,-3.7738657E-1,-9.021877E-2,8.5395724E-5,1.2911791E-2,-8.404651E-3,-6.910969E-2,-5.8345508E-2,8.453378E-3,-3.7748687E-2,1.9685E-2],"categories":[],"categories_nodes":[],"categories_segments":[],"categories_sizes":[],"default_left":[0,0,0,0,0,0,0,0,0,0,0,0,0,0,0],"id":61,"left_children":[1,3,5,7,9,11,13,-1,-1,-1,-1,-1,-1,-1,-1],"loss_changes":[2.5673895E0,2.5845892E0,9.3005276E-1,2.8328452E0,1.1936483E0,2.2486112E0,2.1078384E0,0E0,0E0,0E0,0E0,0E0,0E0,0E0,0E0],"parents":[2147483647,0,0,1,1,2,2,3,3,4,4,5,5,6,6],"right_children":[2,4,6,8,10,12,14,-1,-1,-1,-1,-1,-1,-1,-1],"split_conditions":[6.4E1,3.862551E-1,1.5987849E-1,3.4E1,3.4E1,3.3483547E-3,6.6E1,8.5395724E-5,1.2911791E-2,-8.404651E-3,-6.910969E-2,-5.8345508E-2,8.453378E-3,-3.7748687E-2,1.9685E-2],"split_indices":[15,10,12,14,14,1,15,0,0,0,0,0,0,0,0],"split_type":[0,0,0,0,0,0,0,0,0,0,0,0,0,0,0],"sum_hessian":[1.9335186E4,1.9289422E4,4.5763985E1,1.8986373E4,3.0304947E2,2.2104877E1,2.3659105E1,1.881359E4,1.7278299E2,3.0075238E2,2.297108E0,1.5103782E1,7.0010962E0,1.1668017E1,1.1991089E1],"tree_param":{"num_deleted":"0","num_feature":"17","num_nodes":"15","size_leaf_vector":"1"}},{"base_weights":[-1.1094306E-5,2.017628E-3,-6.170261E-2,6.9372135E-4,1.4514214E-1,-5.440462E-2,-4.38259E-1,-5.0043132E-2,1.13487535E-4,7.033359E-2,5.6547974E-3,-4.149125E-3,-2.6375124E-2,-6.2841676E-2,4.2524166E-2],"categories":[],"categories_nodes":[],"categories_segments":[],"categories_sizes":[],"default_left":[0,0,0,0,0,0,0,0,0,0,0,0,0,0,0],"id":62,"left_children":[1,3,5,7,9,11,13,-1,-1,-1,-1,-1,-1,-1,-1],"loss_changes":[2.419993E0,3.547099E0,1.6679392E0,4.1014323E0,8.444933E0,1.624746E0,2.1658287E0,0E0,0E0,0E0,0E0,0E0,0E0,0E0,0E0],"parents":[2147483647,0,0,1,1,2,2,3,3,4,4,5,5,6,6],"right_children":[2,4,6,8,10,12,14,-1,-1,-1,-1,-1,-1,-1,-1],"split_conditions":[5.8E1,5.1E1,3.862551E-1,7E0,5.5E1,6.429838E1,6.3E1,-5.0043132E-2,1.13487535E-4,7.033359E-2,5.6547974E-3,-4.149125E-3,-2.6375124E-2,-6.2841676E-2,4.2524166E-2],"split_indices":[15,15,9,14,15,15,15,0,0,0,0,0,0,0,0],"split_type":[0,0,0,0,0,0,0,0,0,0,0,0,0,0,0],"sum_hessian":[1.9333982E4,1.8719365E4,6.1461804E2,1.8548793E4,1.7057211E2,6.040554E2,1.0562633E1,1.5317786E1,1.8533475E4,2.2413763E1,1.4815836E2,5.700882E2,3.3967228E1,8.879466E0,1.6831665E0],"tree_param":{"num_deleted":"0","num_feature":"17","num_nodes":"15","size_leaf_vector":"1"}},{"base_weights":[-1.1846769E-5,6.8635824E-3,-1.7805642E-2,1.8595502E-1,5.740282E-3,-4.882203E-1,-1.5892968E-2,5.2072983E-2,7.266278E-3,-5.963688E-2,6.317135E-4,-6.935413E-2,-2.2811666E-2,-1.8983003E-2,-1.2206783E-3],"categories":[],"categories_nodes":[],"categories_segments":[],"categories_sizes":[],"default_left":[0,0,0,0,0,0,0,0,0,0,0,0,0,0,0],"id":63,"left_children":[1,3,5,7,9,11,13,-1,-1,-1,-1,-1,-1,-1,-1],"loss_changes":[2.3654387E0,2.8045413E0,4.840761E0,3.257924E0,4.81785E0,1.0053678E0,3.4394236E0,0E0,0E0,0E0,0E0,0E0,0E0,0E0,0E0],"parents":[2147483647,0,0,1,1,2,2,3,3,4,4,5,5,6,6],"right_children":[2,4,6,8,10,12,14,-1,-1,-1,-1,-1,-1,-1,-1],"split_conditions":[3.1688649E-3,2E1,3.492861E-1,3.1546488E-1,2.2E1,3.6907023E-1,2.2E1,5.2072983E-2,7.266278E-3,-5.963688E-2,6.317135E-4,-6.935413E-2,-2.2811666E-2,-1.8983003E-2,-1.2206783E-3],"split_indices":[5,14,5,6,14,10,14,0,0,0,0,0,0,0,0],"split_type":[0,0,0,0,0,0,0,0,0,0,0,0,0,0,0],"sum_hessian":[1.9332963E4,1.3945218E4,5.387745E3,8.589662E1,1.3859321E4,2.0787886E1,5.366957E3,2.0809347E1,6.508727E1,1.2276708E1,1.3847045E4,1.0686086E1,1.0101801E1,1.10331566E2,5.2566255E3],"tree_param":{"num_deleted":"0","num_feature":"17","num_nodes":"15","size_leaf_vector":"1"}},{"base_weights":[-1.8016752E-5,-1.070226E-2,1.0918171E-2,-1.4390674E-1,-5.748418E-3,-9.1673744E-1,1.1376949E-2,2.144979E-3,-2.2947034E-2,5.1428936E-3,-1.3586645E-3,-2.5756562E-2,-1.0553328E-1,3.0310738E-3,-1.0180231E-3],"categories":[],"categories_nodes":[],"categories_segments":[],"categories_sizes":[],"default_left":[0,0,0,0,0,0,0,0,0,0,0,0,0,0,0],"id":64,"left_children":[1,3,5,7,9,11,13,-1,-1,-1,-1,-1,-1,-1,-1],"loss_changes":[2.258788E0,6.4516754E0,4.076116E0,4.965032E0,4.2264013E0,1.607151E-1,3.8979764E0,0E0,0E0,0E0,0E0,0E0,0E0,0E0,0E0],"parents":[2147483647,0,0,1,1,2,2,3,3,4,4,5,5,6,6],"right_children":[2,4,6,8,10,12,14,-1,-1,-1,-1,-1,-1,-1,-1],"split_conditions":[1E0,5.9727407E-1,4E0,3E1,2.3E1,2E0,3.203423E1,2.144979E-3,-2.2947034E-2,5.1428936E-3,-1.3586645E-3,-2.5756562E-2,-1.0553328E-1,3.0310738E-3,-1.0180231E-3],"split_indices":[3,2,14,14,15,14,14,0,0,0,0,0,0,0,0],"split_type":[0,0,0,0,0,0,0,0,0,0,0,0,0,0,0],"sum_hessian":[1.9329508E4,9.777389E3,9.552118E3,3.4957492E2,9.427813E3,3.7344713E0,9.548384E3,1.1946033E2,2.3011458E2,1.1359392E3,8.291875E3,1.1453736E0,2.5890977E0,5.0832935E3,4.4650903E3],"tree_param":{"num_deleted":"0","num_feature":"17","num_nodes":"15","size_leaf_vector":"1"}},{"base_weights":[-2.4623976E-5,-1.7046403E-2,7.359898E-3,1.96171E-1,-2.1778699E-2,3.1689603E-2,-1.1299745E-2,-2.008825E-2,3.2877803E-2,1.203114E-3,-4.370225E-3,3.2725607E-3,-1.0210522E-1,-1.1750972E-3,8.122628E-2],"categories":[],"categories_nodes":[],"categories_segments":[],"categories_sizes":[],"default_left":[0,0,0,0,0,0,0,0,0,0,0,0,0,0,0],"id":65,"left_children":[1,3,5,7,9,11,13,-1,-1,-1,-1,-1,-1,-1,-1],"loss_changes":[2.4297745E0,5.9056544E0,6.120787E0,6.7576756E0,4.2423015E0,6.4158583E0,2.8451834E0,0E0,0E0,0E0,0E0,0E0,0E0,0E0,0E0],"parents":[2147483647,0,0,1,1,2,2,3,3,4,4,5,5,6,6],"right_children":[2,4,6,8,10,12,14,-1,-1,-1,-1,-1,-1,-1,-1],"split_conditions":[3.1E1,7.950865E-1,3.203423E1,3.1353872E1,2.1E1,1E0,2E0,-2.008825E-2,3.2877803E-2,1.203114E-3,-4.370225E-3,3.2725607E-3,-1.0210522E-1,-1.1750972E-3,8.122628E-2],"split_indices":[15,0,14,14,15,16,16,0,0,0,0,0,0,0,0],"split_type":[0,0,0,0,0,0,0,0,0,0,0,0,0,0,0],"sum_hessian":[1.9328305E4,5.8476963E3,1.3480608E4,1.2609145E2,5.7216045E3,5.850991E3,7.6296167E3,3.1439644E1,9.465181E1,2.250855E3,3.4707498E3,5.846207E3,4.784343E0,7.626424E3,3.1927552E0],"tree_param":{"num_deleted":"0","num_feature":"17","num_nodes":"15","size_leaf_vector":"1"}},{"base_weights":[-2.334805E-5,-4.9480423E-4,2.4965954E-1,-1.5023653E-3,1.0949183E-1,3.3130938E-1,-1.8388464E-1,-2.6633877E-3,4.6367562E-4,4.0282767E-2,-2.4942958E-3,4.5080345E-2,2.263179E-2,-4.2454798E-2,3.155238E-2],"categories":[],"categories_nodes":[],"categories_segments":[],"categories_sizes":[],"default_left":[0,0,0,0,0,0,0,0,0,0,0,0,0,0,0],"id":66,"left_children":[1,3,5,7,9,11,13,-1,-1,-1,-1,-1,-1,-1,-1],"loss_changes":[2.2750263E0,2.137867E0,1.3502951E0,2.9494498E0,6.9159026E0,2.870028E-1,9.0505505E-1,0E0,0E0,0E0,0E0,0E0,0E0,0E0,0E0],"parents":[2147483647,0,0,1,1,2,2,3,3,4,4,5,5,6,6],"right_children":[2,4,6,8,10,12,14,-1,-1,-1,-1,-1,-1,-1,-1],"split_conditions":[1E0,3.4E1,5.9727407E-1,2.8E1,2.4E1,3.203423E1,2.3E1,-2.6633877E-3,4.6367562E-4,4.0282767E-2,-2.4942958E-3,4.5080345E-2,2.263179E-2,-4.2454798E-2,3.155238E-2],"split_indices":[0,14,2,15,15,14,15,0,0,0,0,0,0,0,0],"split_type":[0,0,0,0,0,0,0,0,0,0,0,0,0,0,0],"sum_hessian":[1.9324588E4,1.9289164E4,3.5424164E1,1.9115043E4,1.7412196E2,3.0008451E1,5.415714E0,3.752053E3,1.5362989E4,5.4093605E1,1.20028366E2,1.2494438E1,1.7514013E1,3.7557352E0,1.6599784E0],"tree_param":{"num_deleted":"0","num_feature":"17","num_nodes":"15","size_leaf_vector":"1"}},{"base_weights":[-1.5841211E-5,1.8733598E-3,-5.7499256E-2,6.9210294E-4,1.2965032E-1,4.6968538E-1,-6.177584E-2,-4.4113148E-2,1.0692966E-4,6.395909E-2,4.916883E-3,-3.9511245E-2,7.863011E-2,-5.550861E-3,-3.919151E-2],"categories":[],"categories_nodes":[],"categories_segments":[],"categories_sizes":[],"default_left":[0,0,0,0,0,0,0,0,0,0,0,0,0,0,0],"id":67,"left_children":[1,3,5,7,9,11,13,-1,-1,-1,-1,-1,-1,-1,-1],"loss_changes":[2.0985837E0,2.8238738E0,1.4153159E0,3.0900736E0,7.0018563E0,1.6972883E0,1.2420812E0,0E0,0E0,0E0,0E0,0E0,0E0,0E0,0E0],"parents":[2147483647,0,0,1,1,2,2,3,3,4,4,5,5,6,6],"right_children":[2,4,6,8,10,12,14,-1,-1,-1,-1,-1,-1,-1,-1],"split_conditions":[5.8E1,5.1E1,1.1E1,7E0,5.5E1,3E0,3.862551E-1,-4.4113148E-2,1.0692966E-4,6.395909E-2,4.916883E-3,-3.9511245E-2,7.863011E-2,-5.550861E-3,-3.919151E-2],"split_indices":[15,15,14,14,15,14,9,0,0,0,0,0,0,0,0],"split_type":[0,0,0,0,0,0,0,0,0,0,0,0,0,0,0],"sum_hessian":[1.9322389E4,1.8708498E4,6.1389014E2,1.8538125E4,1.7037357E2,4.064162E0,6.09826E2,1.481614E1,1.8523309E4,2.2276962E1,1.480966E2,1.0227417E0,3.0414202E0,5.996113E2,1.0214652E1],"tree_param":{"num_deleted":"0","num_feature":"17","num_nodes":"15","size_leaf_vector":"1"}},{"base_weights":[-1.3450062E-5,6.220827E-3,-1.615475E-2,3.0965984E-1,5.636963E-3,-4.5618886E-1,-1.4416592E-2,6.2390763E-2,-3.8996101E-3,9.0971397E-4,-3.98532E-3,-3.234845E-2,-9.334556E-2,8.4310705E-3,-2.0403878E-3],"categories":[],"categories_nodes":[],"categories_segments":[],"categories_sizes":[],"default_left":[0,0,0,0,0,0,0,0,0,0,0,0,0,0,0],"id":68,"left_children":[1,3,5,7,9,11,13,-1,-1,-1,-1,-1,-1,-1,-1],"loss_changes":[1.9445009E0,2.4678798E0,4.1112733E0,2.9553704E0,2.1904457E0,1.0376024E0,3.1722677E0,0E0,0E0,0E0,0E0,0E0,0E0,0E0,0E0],"parents":[2147483647,0,0,1,1,2,2,3,3,4,4,5,5,6,6],"right_children":[2,4,6,8,10,12,14,-1,-1,-1,-1,-1,-1,-1,-1],"split_conditions":[3.1688649E-3,7.191237E0,3.492861E-1,3.1546488E-1,3.3E1,9.463946E-1,1.447016E1,6.2390763E-2,-3.8996101E-3,9.0971397E-4,-3.98532E-3,-3.234845E-2,-9.334556E-2,8.4310705E-3,-2.0403878E-3],"split_indices":[5,14,5,7,15,0,15,0,0,0,0,0,0,0,0],"split_type":[0,0,0,0,0,0,0,0,0,0,0,0,0,0,0],"sum_hessian":[1.9321402E4,1.3938522E4,5.382881E3,2.5751768E1,1.39127705E4,2.015028E1,5.3627305E3,1.3128987E1,1.2622782E1,1.2930055E4,9.827152E2,1.7079185E1,3.0710945E0,3.0587796E2,5.0568525E3],"tree_param":{"num_deleted":"0","num_feature":"17","num_nodes":"15","size_leaf_vector":"1"}},{"base_weights":[-1.6254233E-5,-9.796808E-3,1.0464524E-2,-9.787471E-4,-4.9851224E-2,-8.5506874E-1,1.0884273E-2,7.290348E-3,-8.938236E-4,-7.0661143E-3,2.3765318E-2,-2.2349264E-2,-9.9349804E-2,-2.3551187E-3,2.0437755E-3],"categories":[],"categories_nodes":[],"categories_segments":[],"categories_sizes":[],"default_left":[0,0,0,0,0,0,0,0,0,0,0,0,0,0,0],"id":69,"left_children":[1,3,5,7,9,11,13,-1,-1,-1,-1,-1,-1,-1,-1],"loss_changes":[1.9804705E0,3.5298352E0,3.3975976E0,4.8179355E0,1.0805162E1,1.7429519E-1,3.0674543E0,0E0,0E0,0E0,0E0,0E0,0E0,0E0,0E0],"parents":[2147483647,0,0,1,1,2,2,3,3,4,4,5,5,6,6],"right_children":[2,4,6,8,10,12,14,-1,-1,-1,-1,-1,-1,-1,-1],"split_conditions":[9.463946E-1,3.1688649E-3,4E0,2.5E1,3.2E1,2E0,2.8E1,7.290348E-3,-8.938236E-4,-7.0661143E-3,2.3765318E-2,-2.2349264E-2,-9.9349804E-2,-2.3551187E-3,2.0437755E-3],"split_indices":[7,5,14,15,15,14,15,0,0,0,0,0,0,0,0],"split_type":[0,0,0,0,0,0,0,0,0,0,0,0,0,0,0],"sum_hessian":[1.9318193E4,9.992945E3,9.325248E3,8.190758E3,1.8021875E3,3.5332367E0,9.321715E3,7.9579596E2,7.394962E3,1.6812507E3,1.2093675E2,1.1052201E0,2.4280167E0,2.024164E3,7.297551E3],"tree_param":{"num_deleted":"0","num_feature":"17","num_nodes":"15","size_leaf_vector":"1"}},{"base_weights":[-2.0958243E-5,-4.4620666E-4,2.2782972E-1,-4.097206E-2,2.0500962E-3,-1.5810175E-1,3.1128165E-1,-4.58831E-3,9.6899256E-2,2.035447E-2,1.0418674E-4,8.774315E-3,-6.1794966E-2,5.8054443E-2,2.282593E-2],"categories":[],"categories_nodes":[],"categories_segments":[],"categories_sizes":[],"default_left":[0,0,0,0,0,0,0,0,0,0,0,0,0,0,0],"id":70,"left_children":[1,3,5,7,9,11,13,-1,-1,-1,-1,-1,-1,-1,-1],"loss_changes":[1.8716244E0,1.9505762E0,1.208138E0,5.5935E0,3.6895642E0,8.5244966E-1,5.36412E-1,0E0,0E0,0E0,0E0,0E0,0E0,0E0,0E0],"parents":[2147483647,0,0,1,1,2,2,3,3,4,4,5,5,6,6],"right_children":[2,4,6,8,10,12,14,-1,-1,-1,-1,-1,-1,-1,-1],"split_conditions":[1E0,9.463946E-1,1.8557306E1,3.4E1,2E0,5.9727407E-1,2.8E1,-4.58831E-3,9.6899256E-2,2.035447E-2,1.0418674E-4,8.774315E-3,-6.1794966E-2,5.8054443E-2,2.282593E-2],"split_indices":[0,6,15,14,15,2,15,0,0,0,0,0,0,0,0],"split_type":[0,0,0,0,0,0,0,0,0,0,0,0,0,0,0],"sum_hessian":[1.9314328E4,1.9279344E4,3.4983902E1,1.1177637E3,1.816158E4,6.060768E0,2.8923132E1,1.1133047E3,4.4589686E0,8.94234E1,1.8072156E4,4.476645E0,1.584123E0,5.4039884E0,2.3519144E1],"tree_param":{"num_deleted":"0","num_feature":"17","num_nodes":"15","size_leaf_vector":"1"}},{"base_weights":[-1.1778973E-5,1.1787922E-3,-7.46084E-2,1.7124084E-3,-2.2158681E-1,-8.111235E-2,8.454072E-2,-8.267762E-4,1.2701853E-3,-6.602034E-4,-2.9926127E-2,-7.524647E-3,-7.952929E-2],"categories":[],"categories_nodes":[],"categories_segments":[],"categories_sizes":[],"default_left":[0,0,0,0,0,0,0,0,0,0,0,0,0],"id":71,"left_children":[1,3,5,7,9,11,-1,-1,-1,-1,-1,-1,-1],"loss_changes":[1.7153702E0,2.2602522E0,1.8841518E0,2.0803008E0,7.567904E-1,1.2061683E0,0E0,0E0,0E0,0E0,0E0,0E0,0E0],"parents":[2147483647,0,0,1,1,2,2,3,3,4,4,5,5],"right_children":[2,4,6,8,10,12,-1,-1,-1,-1,-1,-1,-1],"split_conditions":[3.862551E-1,6.4E1,6.3E1,8.1546485E-1,3.1179497E1,5.9226166E1,8.454072E-2,-8.267762E-4,1.2701853E-3,-6.602034E-4,-2.9926127E-2,-7.524647E-3,-7.952929E-2],"split_indices":[10,15,15,7,14,15,0,0,0,0,0,0,0],"split_type":[0,0,0,0,0,0,0,0,0,0,0,0,0],"sum_hessian":[1.9312502E4,1.9010082E4,3.0241904E2,1.8965645E4,4.4438286E1,3.0120157E2,1.2174755E0,9.939363E3,9.026281E3,1.2082301E1,3.2355988E1,2.9984418E2,1.3573903E0],"tree_param":{"num_deleted":"0","num_feature":"17","num_nodes":"13","size_leaf_vector":"1"}},{"base_weights":[-1.2612238E-5,-1.4177217E-2,6.1288164E-3,1.779452E-1,-1.8455891E-2,2.8236011E-2,-1.0816064E-2,5.341533E-3,5.3615313E-2,7.3063624E-4,-4.1267015E-3,2.9182401E-3,-9.3509085E-2,-1.1235877E-3,7.5742796E-2],"categories":[],"categories_nodes":[],"categories_segments":[],"categories_sizes":[],"default_left":[0,0,0,0,0,0,0,0,0,0,0,0,0,0,0],"id":72,"left_children":[1,3,5,7,9,11,13,-1,-1,-1,-1,-1,-1,-1,-1],"loss_changes":[1.6800771E0,4.8048944E0,5.046999E0,5.651962E0,3.358708E0,5.356871E0,2.4684289E0,0E0,0E0,0E0,0E0,0E0,0E0,0E0,0E0],"parents":[2147483647,0,0,1,1,2,2,3,3,4,4,5,5,6,6],"right_children":[2,4,6,8,10,12,14,-1,-1,-1,-1,-1,-1,-1,-1],"split_conditions":[3.1E1,7.950865E-1,3.203423E1,3.3E1,2.4E1,1E0,2E0,5.341533E-3,5.3615313E-2,7.3063624E-4,-4.1267015E-3,2.9182401E-3,-9.3509085E-2,-1.1235877E-3,7.5742796E-2],"split_indices":[15,0,14,14,15,16,16,0,0,0,0,0,0,0,0],"split_type":[0,0,0,0,0,0,0,0,0,0,0,0,0,0,0],"sum_hessian":[1.9311252E4,5.8401675E3,1.3471084E4,1.2634607E2,5.7138213E3,5.844878E3,7.6262056E3,9.460578E1,3.1740286E1,2.683655E3,3.0301663E3,5.8401104E3,4.7677207E0,7.6230254E3,3.1802897E0],"tree_param":{"num_deleted":"0","num_feature":"17","num_nodes":"15","size_leaf_vector":"1"}},{"base_weights":[-9.798704E-6,-1.859751E-2,4.572506E-3,1.308213E-2,-1.0062098E-1,2.338457E-2,-1.4238431E-2,-8.867174E-3,4.371797E-3,6.6597196E-3,-2.6020003E-2,-9.288701E-3,2.8657697E-3,-3.0003045E-2,-9.7247737E-4],"categories":[],"categories_nodes":[],"categories_segments":[],"categories_sizes":[],"default_left":[0,0,0,0,0,0,0,0,0,0,0,0,0,0,0],"id":73,"left_children":[1,3,5,7,9,11,13,-1,-1,-1,-1,-1,-1,-1,-1],"loss_changes":[1.6447344E0,9.924748E0,5.482249E0,8.594595E0,2.8413366E1,4.751701E0,9.989763E0,0E0,0E0,0E0,0E0,0E0,0E0,0E0,0E0],"parents":[2147483647,0,0,1,1,2,2,3,3,4,4,5,5,6,6],"right_children":[2,4,6,8,10,12,14,-1,-1,-1,-1,-1,-1,-1,-1],"split_conditions":[2.8E1,2.5E1,3.203423E1,3.1537264E1,3.1179497E1,1E0,3E1,-8.867174E-3,4.371797E-3,6.6597196E-3,-2.6020003E-2,-9.288701E-3,2.8657697E-3,-3.0003045E-2,-9.7247737E-4],"split_indices":[15,15,14,14,14,2,15,0,0,0,0,0,0,0,0],"split_type":[0,0,0,0,0,0,0,0,0,0,0,0,0,0,0],"sum_hessian":[1.9308162E4,3.817946E3,1.5490217E4,2.754807E3,1.063139E3,7.744755E3,7.7454614E3,6.370418E2,2.1177651E3,5.1942816E2,5.437108E2,3.3527975E2,7.409475E3,1.1940808E2,7.6260537E3],"tree_param":{"num_deleted":"0","num_feature":"17","num_nodes":"15","size_leaf_vector":"1"}},{"base_weights":[-1.4535444E-5,1.6751323E-3,-5.1442403E-2,6.063405E-4,1.1730138E-1,-7.83681E-2,3.300587E-2,-3.968451E-2,9.368367E-5,5.774569E-2,4.5079836E-3,3.4095876E-2,-8.454879E-3,1.2411307E-2,-1.7203152E-2],"categories":[],"categories_nodes":[],"categories_segments":[],"categories_sizes":[],"default_left":[0,0,0,0,0,0,0,0,0,0,0,0,0,0,0],"id":74,"left_children":[1,3,5,7,9,11,13,-1,-1,-1,-1,-1,-1,-1,-1],"loss_changes":[1.6774544E0,2.309659E0,1.3988649E0,2.4330792E0,5.6626377E0,1.2363284E0,2.8077095E0,0E0,0E0,0E0,0E0,0E0,0E0,0E0,0E0],"parents":[2147483647,0,0,1,1,2,2,3,3,4,4,5,5,6,6],"right_children":[2,4,6,8,10,12,14,-1,-1,-1,-1,-1,-1,-1,-1],"split_conditions":[5.8E1,5.1E1,6E1,7E0,5.5E1,2.3E1,6.4E1,-3.968451E-2,9.368367E-5,5.774569E-2,4.5079836E-3,3.4095876E-2,-8.454879E-3,1.2411307E-2,-1.7203152E-2],"split_indices":[15,15,15,14,15,14,15,0,0,0,0,0,0,0,0],"split_type":[0,0,0,0,0,0,0,0,0,0,0,0,0,0,0],"sum_hessian":[1.9302166E4,1.8689102E4,6.1306494E2,1.8518928E4,1.7017456E2,4.6490536E2,1.4815958E2,1.4389596E1,1.8504537E4,2.2136631E1,1.4803793E2,5.966189E0,4.5893918E2,1.0285239E2,4.530719E1],"tree_param":{"num_deleted":"0","num_feature":"17","num_nodes":"15","size_leaf_vector":"1"}},{"base_weights":[-1.1115123E-5,-4.0151755E-4,2.1086013E-1,-1.2904591E-3,9.661897E-2,2.8618503E-1,-1.8238175E-1,-2.1632737E-3,3.6723047E-4,4.3750323E-2,3.4935743E-4,4.0575795E-2,1.8432423E-2,-4.045322E-2,2.8227283E-2],"categories":[],"categories_nodes":[],"categories_segments":[],"categories_sizes":[],"default_left":[0,0,0,0,0,0,0,0,0,0,0,0,0,0,0],"id":75,"left_children":[1,3,5,7,9,11,13,-1,-1,-1,-1,-1,-1,-1,-1],"loss_changes":[1.5891463E0,1.6618788E0,1.1088276E0,1.9276693E0,5.552225E0,2.9458094E-1,7.691637E-1,0E0,0E0,0E0,0E0,0E0,0E0,0E0,0E0],"parents":[2147483647,0,0,1,1,2,2,3,3,4,4,5,5,6,6],"right_children":[2,4,6,8,10,12,14,-1,-1,-1,-1,-1,-1,-1,-1],"split_conditions":[1E0,3.4E1,5.9727407E-1,2.8E1,2.1E1,3.203423E1,2.3E1,-2.1632737E-3,3.6723047E-4,4.3750323E-2,3.4935743E-4,4.0575795E-2,1.8432423E-2,-4.045322E-2,2.8227283E-2],"split_indices":[0,14,2,15,15,14,15,0,0,0,0,0,0,0,0],"split_type":[0,0,0,0,0,0,0,0,0,0,0,0,0,0,0],"sum_hessian":[1.930138E4,1.9266709E4,3.4671867E1,1.909276E4,1.73949E2,2.9326637E1,5.345231E0,3.7437673E3,1.5348993E4,3.653074E1,1.3741827E2,1.2118014E1,1.7208622E1,3.7038288E0,1.6414022E0],"tree_param":{"num_deleted":"0","num_feature":"17","num_nodes":"15","size_leaf_vector":"1"}},{"base_weights":[-4.879454E-6,1.5274794E-3,-4.6663944E-2,5.653597E-4,1.0570791E-1,-4.0532924E-2,-3.7303075E-1,7.4091215E-5,-6.366156E-2,5.2614182E-2,4.0236525E-3,4.6422508E-2,-4.4540623E-3,-5.4946035E-2,3.8724005E-2],"categories":[],"categories_nodes":[],"categories_segments":[],"categories_sizes":[],"default_left":[0,0,0,0,0,0,0,0,0,0,0,0,0,0,0],"id":76,"left_children":[1,3,5,7,9,11,13,-1,-1,-1,-1,-1,-1,-1,-1],"loss_changes":[1.380023E0,1.8730853E0,1.2129389E0,2.071838E0,4.68581E0,1.241588E0,1.7143954E0,0E0,0E0,0E0,0E0,0E0,0E0,0E0,0E0],"parents":[2147483647,0,0,1,1,2,2,3,3,4,4,5,5,6,6],"right_children":[2,4,6,8,10,12,14,-1,-1,-1,-1,-1,-1,-1,-1],"split_conditions":[5.8E1,5.1E1,3.862551E-1,4.9E1,5.5E1,1.1E1,6.3E1,7.4091215E-5,-6.366156E-2,5.2614182E-2,4.0236525E-3,4.6422508E-2,-4.4540623E-3,-5.4946035E-2,3.8724005E-2],"split_indices":[15,15,9,15,15,14,15,0,0,0,0,0,0,0,0],"split_type":[0,0,0,0,0,0,0,0,0,0,0,0,0,0,0],"sum_hessian":[1.9299447E4,1.8686713E4,6.1273456E2,1.8516715E4,1.6999881E2,6.025396E2,1.0194916E1,1.8512613E4,4.1016498E0,2.1957752E1,1.4804106E2,3.841808E0,5.986978E2,8.499737E0,1.6951789E0],"tree_param":{"num_deleted":"0","num_feature":"17","num_nodes":"15","size_leaf_vector":"1"}},{"base_weights":[-3.5049895E-6,-8.222992E-3,8.805372E-3,-9.3170024E-2,-4.878898E-3,-8.0008477E-1,9.181361E-3,-1.2282374E-2,2.3728803E-2,5.0501055E-3,-1.2529441E-3,-1.9218894E-2,-9.397485E-2,2.4207837E-3,-7.90668E-4],"categories":[],"categories_nodes":[],"categories_segments":[],"categories_sizes":[],"default_left":[0,0,0,0,0,0,0,0,0,0,0,0,0,0,0],"id":77,"left_children":[1,3,5,7,9,11,13,-1,-1,-1,-1,-1,-1,-1,-1],"loss_changes":[1.3974581E0,2.8358166E0,2.84076E0,3.7343683E0,4.0711055E0,1.8784094E-1,2.3915186E0,0E0,0E0,0E0,0E0,0E0,0E0,0E0,0E0],"parents":[2147483647,0,0,1,1,2,2,3,3,4,4,5,5,6,6],"right_children":[2,4,6,8,10,12,14,-1,-1,-1,-1,-1,-1,-1,-1],"split_conditions":[9.463946E-1,5.9727407E-1,4E0,7.944202E-1,2.3E1,2E0,3.203423E1,-1.2282374E-2,2.3728803E-2,5.0501055E-3,-1.2529441E-3,-1.9218894E-2,-9.397485E-2,2.4207837E-3,-7.90668E-4],"split_indices":[7,2,14,3,15,14,14,0,0,0,0,0,0,0,0],"split_type":[0,0,0,0,0,0,0,0,0,0,0,0,0,0,0],"sum_hessian":[1.929872E4,9.983381E3,9.31534E3,3.7711075E2,9.6062705E3,3.339763E0,9.312E3,3.4663382E2,3.0476929E1,1.1653142E3,8.440956E3,1.0678698E0,2.2718933E0,4.9546665E3,4.3573335E3],"tree_param":{"num_deleted":"0","num_feature":"17","num_nodes":"15","size_leaf_vector":"1"}},{"base_weights":[-8.914328E-6,1.0593234E-3,-6.71409E-2,1.6349401E-4,9.821506E-2,-7.31611E-2,7.738071E-2,-2.1064216E-3,5.27716E-4,3.9752763E-2,1.5690159E-3,-6.654441E-3,-6.6173695E-2],"categories":[],"categories_nodes":[],"categories_segments":[],"categories_sizes":[],"default_left":[0,0,0,0,0,0,0,0,0,0,0,0,0],"id":78,"left_children":[1,3,5,7,9,11,-1,-1,-1,-1,-1,-1,-1],"loss_changes":[1.3840235E0,1.653406E0,1.5870248E0,2.043554E0,4.280891E0,1.1284142E0,0E0,0E0,0E0,0E0,0E0,0E0,0E0],"parents":[2147483647,0,0,1,1,2,2,3,3,4,4,5,5],"right_children":[2,4,6,8,10,12,-1,-1,-1,-1,-1,-1,-1],"split_conditions":[3.862551E-1,3.4E1,6.3E1,2.8E1,2.1E1,3.4E1,7.738071E-2,-2.1064216E-3,5.27716E-4,3.9752763E-2,1.5690159E-3,-6.654441E-3,-6.6173695E-2],"split_indices":[10,14,15,15,15,14,0,0,0,0,0,0,0],"split_type":[0,0,0,0,0,0,0,0,0,0,0,0,0],"sum_hessian":[1.929751E4,1.8996217E4,3.0129306E2,1.8823654E4,1.7256276E2,3.00058E2,1.2350622E0,3.6536409E3,1.5170013E4,3.6470287E1,1.3609248E2,2.9782297E2,2.2350307E0],"tree_param":{"num_deleted":"0","num_feature":"17","num_nodes":"13","size_leaf_vector":"1"}},{"base_weights":[-5.8098603E-6,-3.6602357E-4,1.9628255E-1,4.7035874E-3,-1.348562E-2,-1.6035181E-1,2.7385077E-1,1.7597081E-2,3.647071E-4,-4.236829E-2,-1.1908525E-3,5.8707255E-3,-5.6326773E-2,5.4155465E-2,1.9244883E-2],"categories":[],"categories_nodes":[],"categories_segments":[],"categories_sizes":[],"default_left":[0,0,0,0,0,0,0,0,0,0,0,0,0,0,0],"id":79,"left_children":[1,3,5,7,9,11,13,-1,-1,-1,-1,-1,-1,-1,-1],"loss_changes":[1.3644158E0,1.2811853E0,1.0217539E0,2.5134182E0,3.468138E0,6.460853E-1,5.3650236E-1,0E0,0E0,0E0,0E0,0E0,0E0,0E0,0E0],"parents":[2147483647,0,0,1,1,2,2,3,3,4,4,5,5,6,6],"right_children":[2,4,6,8,10,12,14,-1,-1,-1,-1,-1,-1,-1,-1],"split_conditions":[1E0,3.1688649E-3,1.8557306E1,2E1,3.492861E-1,5.9727407E-1,2.8E1,1.7597081E-2,3.647071E-4,-4.236829E-2,-1.1908525E-3,5.8707255E-3,-5.6326773E-2,5.4155465E-2,1.9244883E-2],"split_indices":[0,5,15,14,5,2,15,0,0,0,0,0,0,0,0],"split_type":[0,0,0,0,0,0,0,0,0,0,0,0,0,0,0],"sum_hessian":[1.929508E4,1.9260732E4,3.4347717E1,1.3892934E4,5.367799E3,5.9453993E0,2.8402317E1,8.416249E1,1.38087705E4,1.9533567E1,5.348265E3,4.404847E0,1.5405524E0,5.3045564E0,2.3097761E1],"tree_param":{"num_deleted":"0","num_feature":"17","num_nodes":"15","size_leaf_vector":"1"}},{"base_weights":[-5.7961856E-6,3.685659E-2,-1.7377929E-3,-2.9562393E-2,1.6718483E-1,-4.014784E-1,-9.6209004E-4,-1.2052334E-2,4.7580646E-3,3.9290134E-2,5.035149E-3,-6.158308E-2,2.2423247E-2,-6.2798816E-3,2.5339558E-4],"categories":[],"categories_nodes":[],"categories_segments":[],"categories_sizes":[],"default_left":[0,0,0,0,0,0,0,0,0,0,0,0,0,0,0],"id":80,"left_children":[1,3,5,7,9,11,13,-1,-1,-1,-1,-1,-1,-1,-1],"loss_changes":[1.231869E0,7.500218E0,5.7139645E0,4.036443E0,7.692691E0,4.9248443E0,3.9766364E0,0E0,0E0,0E0,0E0,0E0,0E0,0E0,0E0],"parents":[2147483647,0,0,1,1,2,2,3,3,4,4,5,5,6,6],"right_children":[2,4,6,8,10,12,14,-1,-1,-1,-1,-1,-1,-1,-1],"split_conditions":[1.447016E1,1.2E1,1.5E1,4.3422338E-1,1.3E1,4.5E1,1.9E1,-1.2052334E-2,4.7580646E-3,3.9290134E-2,5.035149E-3,-6.158308E-2,2.2423247E-2,-6.2798816E-3,2.5339558E-4],"split_indices":[15,15,14,12,15,15,15,0,0,0,0,0,0,0,0],"split_type":[0,0,0,0,0,0,0,0,0,0,0,0,0,0,0],"sum_hessian":[1.9292516E4,8.6487836E2,1.8427637E4,5.734202E2,2.9145813E2,3.4689392E1,1.839295E4,2.628849E2,3.1053534E2,9.860159E1,1.9285654E2,2.5849733E1,8.83966E0,9.833241E2,1.7409625E4],"tree_param":{"num_deleted":"0","num_feature":"17","num_nodes":"15","size_leaf_vector":"1"}},{"base_weights":[-6.657457E-6,-7.4976925E-3,8.022617E-3,3.5599735E-2,-1.3711275E-2,-7.546833E-1,